818048 512
de -0.02415 0.07494 0.08299 -0.14786 0.01928 -0.07435 0.01674 0.01755 -0.01511 -0.01449 -0.10462 0.00841 -0.00956 0.03164 -0.00849 0.02955 -0.07634 0.04267 -0.03270 0.10618 -0.07032 0.00073 0.18119 -0.05885 0.03117 -0.00732 0.13861 0.07425 0.04891 -0.06101 0.10901 -0.00974 0.11737 0.02553 0.00459 -0.06016 -0.12351 -0.00014 0.05736 0.03590 -0.32902 -0.02386 0.07623 0.16192 0.05867 -0.01233 -0.00577 0.00735 0.04046 -0.02159 0.01740 -0.06796 -0.11617 -0.07345 0.08094 0.08695 -0.04633 -0.04484 0.05169 0.05643 -0.05093 -0.10688 0.11376 0.01111 -0.04518 0.08756 0.02157 -0.14330 0.09036 0.02076 -0.02477 -0.00320 0.01696 -0.00692 0.07493 0.07567 0.07131 -0.05507 0.01199 -0.07719 0.01002 0.10180 -0.00234 0.00383 0.04676 -0.03979 0.03435 -0.08860 -0.05503 0.13251 -0.02606 0.02375 -0.06571 -0.02002 0.00375 -0.07659 -0.12082 0.11273 -0.13738 0.09587 -0.11555 -0.12708 -0.06082 -0.07620 0.00141 -0.09309 0.00136 -0.00446 -0.16251 -0.00925 0.07929 -0.13541 -0.05807 0.08744 -0.01355 -0.11284 0.24887 0.17924 -0.01039 -0.05470 -0.00884 0.00268 -0.10742 0.14432 0.16048 -0.00729 0.01387 0.22967 -0.17897 0.04812 -0.03126 0.00029 -0.16804 0.02541 0.12655 -0.16028 0.08989 -0.10801 -0.01195 0.21801 -0.06691 0.11998 0.00697 0.05980 -0.15665 -0.16244 0.16210 -0.10383 0.04894 -0.03164 -0.14293 -0.02428 -0.00115 -0.03053 -0.24713 0.17218 -0.01467 0.05745 -0.02476 -0.10329 -0.00123 -0.03575 0.00590 -0.09455 0.06380 0.13546 -0.12956 0.04888 -0.15010 0.01560 0.05184 0.10997 -0.02772 -0.09562 0.13627 0.01956 -0.30046 0.05114 0.13608 0.00839 -0.01821 0.03056 0.09378 -0.13959 0.00647 0.09200 0.13759 -0.13663 0.07941 0.08405 -0.11265 0.11873 0.01761 0.21633 0.11062 -0.00061 0.12980 0.01003 0.16324 0.03607 0.04740 0.04164 0.10897 0.08042 -0.04207 -0.01083 0.03987 0.07670 0.03868 -0.08416 -0.17994 0.05203 -0.07977 0.08683 -0.13969 0.01826 0.01028 -0.00541 0.06243 -0.00441 -0.08577 0.09534 0.15138 -0.10083 -0.07947 -0.11577 0.01944 -0.05846 -0.08069 -0.00697 0.06705 -0.11574 -0.04095 0.17164 -0.05202 0.08136 0.06834 0.06456 -0.10209 0.05351 0.06398 -0.00987 0.06225 0.02752 0.02887 0.01884 -0.05803 -0.02501 -0.14584 -0.09504 -0.12759 0.07713 -0.16693 -0.06175 -0.14701 0.18376 -0.11689 0.04009 0.20739 0.28023 -0.01725 0.13916 0.09878 0.08468 0.18908 0.16314 -0.21596 -0.15572 0.17966 -0.03703 0.22509 0.24016 0.03339 -0.16753 0.10890 -0.10853 0.04959 -0.01100 0.00141 0.06775 0.07112 -0.10174 -0.06604 -0.00114 -0.06667 0.09983 0.05742 0.00526 -0.02001 -0.10755 0.07704 -0.06666 -0.07986 -0.06695 -0.03302 -0.09103 -0.08983 -0.02081 -0.11297 -0.09624 -0.05755 0.04553 -0.09535 -0.00300 0.04633 0.09021 0.07815 0.00702 -0.03645 0.08727 -0.03277 -0.07554 0.13331 0.07536 -0.01839 0.04172 -0.01001 0.04721 0.22082 -0.06690 -0.05564 -0.09178 0.03818 0.00265 0.03674 -0.03521 -0.16175 0.09811 0.01270 -0.00958 0.06096 0.02081 0.00588 0.07073 -0.08400 -0.02096 0.02395 -0.04319 0.02667 -0.00748 -0.06754 0.01326 -0.10228 -0.02923 -0.06755 0.02507 -0.01620 -0.02768 0.06749 -0.06033 0.00338 -0.14495 -0.08497 -0.01222 -0.05861 0.04212 -0.13293 -0.02597 0.03078 -0.06096 -0.09295 -0.06059 0.06744 -0.07324 -0.11797 -0.02768 0.08833 -0.17739 0.06820 -0.03526 0.10462 0.02007 0.04944 0.07768 -0.00396 0.15360 0.23405 0.18417 0.00450 -0.05438 0.12818 0.13352 0.06975 0.07966 0.01752 -0.10229 -0.21753 -0.04873 -0.09716 -0.03135 0.08442 0.07791 -0.04947 0.04419 0.08947 0.01019 0.12607 -0.17271 -0.09047 -0.07946 -0.02263 0.15586 0.13362 -0.09251 -0.02973 -0.05963 -0.02881 -0.14762 0.07076 -0.07421 -0.06954 -0.03554 0.03851 -0.09641 0.03765 0.02752 0.01064 -0.01399 0.04596 -0.13504 0.08582 -0.28043 0.05009 0.01736 -0.00771 0.05908 -0.04934 -0.12658 0.00043 0.14486 -0.11915 -0.10779 -0.04626 0.11645 0.13119 0.09449 0.02021 0.07031 0.09047 0.05342 0.11672 -0.10021 -0.05897 0.11581 -0.01278 -0.04456 -0.05856 0.05613 -0.09777 0.02133 0.06854 0.02405 -0.01630 0.02539 -0.09355 0.08338 0.07418 0.00542 0.05147 -0.09197 -0.07853 0.07473 -0.13383 -0.08018 -0.03568 -0.01936 -0.02873 0.08436 -0.12065 -0.06426 -0.06750 -0.04409 -0.13274 0.18105 0.05607 0.01483 -0.04754 -0.03237 -0.05138 -0.00187 0.19049 -0.07333 -0.01594 -0.07005 0.01022 -0.08065 0.07453 -0.04607 0.01507 -0.00365 -0.07888 -0.00063 0.07723 -0.00288 0.07864 0.02238 0.10409 -0.08478 0.03703 -0.04603 0.03751 -0.02283 -0.09001 0.02372 0.15312 0.08733 -0.14457 -0.05968 -0.06408 0.02468 0.07756 -0.00223
, -0.10669 0.01654 0.15481 -0.14182 0.03905 -0.04146 0.01348 0.04055 -0.04539 -0.04869 -0.14350 -0.01799 -0.05466 -0.00408 -0.07690 -0.03507 0.05266 -0.01939 0.04167 -0.03837 0.02823 -0.06097 0.09760 0.00954 0.08932 -0.05981 0.03490 0.03919 -0.03163 0.01820 -0.01670 0.03727 0.11594 0.04818 -0.08639 -0.07703 -0.06315 0.00586 0.05137 0.08538 -0.25325 0.08017 0.07599 0.08781 -0.04561 -0.03358 -0.07298 0.04755 -0.01926 0.08630 -0.08439 -0.11536 -0.10415 -0.12353 -0.06976 0.02264 -0.23167 0.09067 -0.03897 0.06181 0.07895 -0.12831 0.16694 0.15053 0.01246 0.09500 0.15100 0.01125 0.10071 -0.00259 0.11970 0.01943 0.06077 -0.11149 -0.07666 0.13844 0.04584 -0.00407 0.00324 -0.05038 -0.01555 0.02416 -0.04882 0.05726 -0.02081 0.02689 -0.05753 -0.09060 -0.01848 -0.01840 -0.01027 0.00047 0.00435 -0.00818 0.03572 -0.00299 -0.02296 0.09848 -0.06300 0.13790 -0.04586 -0.08022 -0.16694 0.02163 0.00410 -0.02157 0.04604 0.08259 -0.05759 0.07627 0.08419 -0.13140 -0.00018 0.07929 0.08483 0.01601 0.11556 0.16921 0.00706 0.02368 0.09563 0.02493 -0.15768 0.09657 0.09955 -0.00525 0.03725 0.07374 -0.10005 0.01259 -0.00647 0.07492 -0.07637 -0.01133 0.00285 -0.07811 -0.07210 -0.03673 0.00363 0.09637 -0.11648 0.03678 -0.01125 0.09288 0.02107 -0.09532 0.01962 -0.06048 0.08191 -0.04704 -0.02963 0.00889 -0.01409 -0.02016 -0.12438 0.01897 -0.01247 0.08450 -0.01663 -0.05136 -0.01293 0.10168 0.11487 -0.06265 -0.05111 0.23365 -0.10525 0.12357 -0.04774 -0.03769 0.16230 0.11727 -0.00759 -0.03725 0.07040 0.01672 -0.07781 -0.03676 0.01373 -0.09724 0.02008 -0.04043 0.09311 0.01712 -0.04268 0.05998 -0.03150 -0.06472 0.06604 0.19117 -0.04020 0.01665 0.00583 0.03089 0.06404 0.08807 0.09962 -0.02204 0.00591 -0.01597 -0.05836 0.03246 0.02738 -0.08631 0.00456 -0.04258 0.04249 0.07406 0.02274 -0.07435 -0.04386 0.02586 -0.03555 0.11682 -0.06370 0.03400 -0.04397 -0.01056 0.10161 -0.11608 0.01696 0.01129 0.07595 -0.07380 -0.00404 -0.06051 -0.05602 -0.04361 0.00179 -0.08747 0.09354 0.03528 0.07195 0.03481 0.01120 -0.03263 0.07936 0.13111 0.01637 -0.04703 -0.05928 0.00594 0.08075 0.05011 -0.06634 -0.06390 0.02154 -0.06190 -0.12849 0.00296 0.00426 0.06329 -0.14763 -0.04553 -0.09219 0.14065 -0.07505 0.01302 0.31425 0.17339 -0.01632 0.02790 0.17662 -0.05778 0.10701 0.02229 -0.08111 -0.09882 0.04542 -0.03861 0.21399 0.16654 0.01811 -0.09117 0.11601 -0.02400 0.08535 -0.09733 -0.04101 0.01510 -0.06496 -0.01379 -0.03631 -0.10355 -0.05767 0.04834 0.03082 0.04726 -0.03526 -0.12645 -0.03582 -0.08298 -0.00972 -0.16622 -0.00187 -0.01303 0.00868 -0.07135 -0.07780 -0.03085 -0.07059 0.06634 -0.06396 0.07708 0.08882 0.04615 0.07245 0.03891 0.05731 -0.01365 0.01794 -0.06256 0.07852 0.06081 -0.00252 -0.02125 0.11776 0.05623 -0.03670 -0.09788 0.00480 -0.03420 0.05586 0.01842 0.00694 -0.03626 0.02227 0.12624 -0.12176 -0.02114 -0.06953 -0.04874 -0.00682 -0.03133 0.00192 0.03997 0.18065 0.01247 0.01684 0.04212 -0.09311 0.02612 0.01835 0.06041 0.10076 -0.09317 -0.01333 0.00743 0.12651 0.02583 -0.09764 0.01957 -0.16211 -0.02057 0.01203 0.04797 0.12940 0.04273 0.15204 -0.05002 -0.19389 0.01196 -0.10366 -0.08846 -0.16618 -0.21009 0.07132 -0.05873 -0.01906 -0.12205 0.03956 -0.00960 0.07305 0.07168 0.05672 0.10926 0.29129 0.14719 0.07239 -0.11097 0.18505 0.06179 0.01160 -0.05146 0.02735 -0.05052 -0.09182 0.00811 -0.04438 -0.12080 0.08240 0.06989 -0.02581 0.20962 -0.05861 0.10696 -0.00966 -0.12858 -0.01604 -0.03840 -0.02660 -0.07200 0.16019 -0.19490 -0.02812 -0.10909 -0.00027 -0.16654 -0.03244 -0.10723 -0.03249 -0.11750 -0.02488 -0.05336 0.10882 -0.02188 -0.09598 -0.02844 0.04028 0.05210 0.02701 -0.15879 0.02966 -0.05477 -0.00943 0.10039 0.03367 -0.00432 -0.02297 0.13220 -0.05262 -0.09438 -0.04850 0.06571 0.07337 0.00814 0.07085 0.01243 0.07537 0.05391 0.07086 -0.02332 -0.10810 0.05340 0.03144 0.04339 0.03297 0.02191 -0.04493 0.06054 0.01718 -0.12487 -0.04715 -0.06307 0.01450 0.02043 0.01869 -0.02052 0.02239 -0.01926 -0.07498 0.09979 -0.08672 -0.08195 -0.05235 0.09070 0.08135 0.04363 -0.04046 0.01897 0.13435 0.04456 -0.10948 0.10134 0.02908 0.07130 0.02882 -0.07969 0.00300 -0.05089 0.03906 -0.04019 0.10721 -0.01906 0.04341 -0.16813 0.01734 -0.02935 0.01652 0.00506 -0.09847 0.02981 -0.07240 -0.04944 -0.05723 0.02654 0.04249 -0.03188 0.06007 -0.07175 0.07507 -0.03039 -0.08697 -0.00390 -0.04082 0.09025 0.00555 0.00468 -0.06868 -0.04325 0.07128 -0.09581
</s> 0.04775 0.00345 0.10435 -0.10884 0.03523 -0.01005 0.11850 0.04119 0.03430 0.15625 0.07584 -0.03651 -0.12972 0.19147 -0.12505 -0.07049 0.00135 -0.00722 0.01434 -0.10204 -0.13636 0.03412 0.23299 -0.05412 0.07916 0.07098 0.17462 0.01684 0.07742 -0.05103 -0.07236 -0.04378 0.15989 0.11568 -0.03434 0.01169 -0.09984 -0.07070 0.00262 0.09320 -0.21537 -0.00522 0.10807 0.07093 0.07841 0.10043 -0.06562 0.04957 0.05272 0.08896 0.06086 -0.08923 -0.08278 0.05948 0.12866 0.08822 -0.00799 -0.18668 0.11075 0.00183 -0.02048 -0.05238 0.11917 -0.00946 0.00015 0.08782 0.06081 -0.10706 0.02856 0.13027 0.09260 -0.12673 0.00758 -0.04609 -0.01528 -0.02593 -0.09186 0.01297 -0.03495 -0.06707 0.11226 0.04879 -0.01652 0.12789 -0.06892 0.01132 -0.04539 0.02987 0.02639 0.14885 0.00344 -0.02539 0.15696 0.04425 0.08150 0.00250 -0.13244 0.10183 -0.14334 0.09536 -0.05012 -0.12123 -0.07439 0.09647 -0.08306 -0.19198 -0.11317 -0.02193 -0.04454 0.01803 0.16690 -0.08820 -0.14164 0.04762 0.25246 0.17548 0.09052 0.07152 -0.09534 0.05176 0.03641 0.09122 -0.02498 0.22574 0.12664 -0.03142 -0.02444 0.06409 -0.05555 0.07870 -0.08738 -0.02807 -0.07844 0.16814 0.08008 0.02752 -0.05633 -0.05853 -0.10923 0.21584 0.01871 0.06829 -0.03788 0.00145 -0.07675 -0.09949 0.15551 -0.05620 0.03248 0.03963 -0.21383 -0.10057 0.16468 0.15041 -0.36579 0.27314 -0.00896 0.08663 0.13696 -0.10138 0.00458 0.00736 0.06604 0.03050 0.01377 0.12447 -0.02545 0.17832 -0.11558 0.08850 0.02387 0.14559 0.00086 0.06431 0.09841 0.08670 -0.10591 -0.16137 0.13405 -0.07955 0.07901 0.02230 0.15395 -0.08409 -0.08559 -0.01752 0.11866 -0.10769 0.07652 -0.01844 -0.11655 -0.05101 -0.15567 0.11816 -0.05029 0.01653 0.10184 -0.05115 0.05567 -0.04693 -0.06210 0.10258 0.01983 -0.09078 0.06265 0.00382 0.01626 0.13337 0.01760 -0.03357 -0.05193 -0.16550 0.04739 0.14766 -0.08622 0.10591 0.16302 -0.02893 0.10078 -0.01558 -0.05480 0.05201 0.04464 0.14141 0.02836 -0.07253 0.02738 0.02582 0.12065 -0.09496 0.04766 0.04018 0.08069 0.13534 -0.03168 0.05096 0.01273 0.07606 -0.20689 -0.06885 0.02348 0.02406 0.15197 0.08932 -0.02043 -0.00305 0.06285 0.08793 -0.12413 0.15349 -0.08380 0.12043 0.00177 0.02492 0.00563 0.07021 0.00446 0.08194 0.18003 0.12135 -0.00015 0.06526 0.01811 -0.01488 0.12512 0.11711 -0.26860 -0.06198 -0.03777 -0.12454 0.11537 0.17557 0.05521 0.00824 -0.01803 -0.11434 -0.05538 -0.10087 -0.09527 0.04399 0.06642 0.09971 0.08294 0.02563 -0.13648 0.12121 0.07014 -0.01769 -0.02858 -0.08204 -0.14154 -0.03332 0.06246 -0.24954 0.04618 -0.15733 -0.20166 -0.03702 -0.18440 0.10991 -0.09350 0.20835 -0.04908 0.16787 -0.10443 -0.07022 -0.08303 -0.04463 0.07884 0.15051 -0.00505 -0.07674 0.07408 0.12939 0.05263 -0.14633 0.06369 0.14389 -0.00403 0.05352 0.01281 -0.06506 -0.03872 0.04321 -0.07553 -0.00980 0.06551 0.18303 -0.16691 -0.19705 0.10809 0.07096 0.07319 0.05285 0.13984 -0.08784 -0.03204 -0.08190 0.04237 -0.02749 -0.14833 -0.08758 -0.00767 0.01331 0.10935 -0.01402 -0.14221 0.05443 0.02619 0.02714 -0.26093 -0.12776 -0.09527 -0.04636 -0.02001 0.00590 0.13691 -0.04224 0.04515 0.05412 -0.04557 -0.02129 0.00125 -0.22094 -0.02313 -0.04919 0.14806 -0.14313 0.04666 0.03519 0.24452 0.03010 0.04660 0.09326 -0.00996 0.09816 0.00909 0.15790 0.06203 -0.03449 0.16043 -0.05527 0.11249 0.04591 0.10084 0.01494 -0.07534 0.04574 -0.01383 -0.14004 0.07541 -0.01095 -0.01056 0.17689 -0.01672 0.11415 0.11888 -0.18893 0.00104 -0.07209 -0.12102 0.06403 -0.00609 -0.11789 0.18525 -0.10129 0.10991 -0.22833 0.01608 -0.03334 -0.01375 -0.19546 -0.04438 0.01851 0.22269 -0.01505 -0.07919 0.13427 -0.01354 0.00215 -0.04710 -0.11941 -0.00446 -0.08391 0.03692 -0.01892 -0.11588 0.03526 -0.10276 0.12996 -0.06884 -0.01803 -0.14767 0.06353 0.09636 0.06082 -0.03562 0.01173 0.10394 0.04786 0.23319 -0.07497 -0.08927 -0.07716 0.02030 -0.02207 0.01430 0.05119 -0.08568 -0.03008 0.04729 -0.05005 -0.01033 0.01508 -0.09704 0.08632 -0.01070 -0.02649 0.07547 -0.03667 -0.06160 0.16098 -0.08976 -0.04712 -0.00491 -0.02056 0.00242 0.01525 -0.14459 -0.03873 -0.02465 0.16324 -0.11380 0.14044 -0.10263 0.01055 -0.03254 -0.08156 -0.14672 -0.05524 0.15828 0.07767 0.20083 -0.09305 0.11639 -0.02551 0.09098 -0.15849 0.09793 -0.06487 0.08033 -0.06600 0.01410 -0.05306 -0.12341 -0.04041 0.04631 -0.06029 0.03704 -0.06182 -0.06982 -0.08952 -0.14704 -0.04629 -0.06311 0.13312 -0.13701 -0.08244 -0.00285 -0.00062 -0.05980 0.12770
la -0.02526 -0.00538 0.17031 -0.20684 0.15408 -0.02005 0.07353 0.18021 -0.14944 0.09905 -0.07221 0.04009 0.03120 -0.02332 -0.00666 0.05312 -0.10256 0.08949 -0.03186 -0.06586 -0.24335 -0.05095 0.15732 0.14608 -0.00074 0.08178 0.10537 0.01092 0.00720 -0.14256 0.05643 0.05350 0.09226 0.04498 0.01644 -0.08486 -0.05031 0.01327 0.03367 -0.00734 -0.11226 0.08292 0.08955 0.10019 0.08286 0.03409 -0.01900 -0.05438 0.14472 -0.04126 0.02486 0.04055 0.06005 0.05205 0.10230 -0.01872 -0.02416 0.04245 0.03117 0.07921 -0.03806 -0.23871 0.09543 0.02055 -0.00091 0.13989 0.12194 -0.01136 0.12434 0.04980 0.05628 0.00575 -0.03445 -0.08460 0.16972 0.01203 0.09221 0.04513 0.06298 -0.12498 0.05348 -0.06143 0.08248 -0.02178 0.19150 -0.12998 0.09853 -0.05032 0.09517 0.00309 -0.05436 -0.05293 -0.17943 0.16533 0.09723 -0.17290 -0.04836 0.23826 -0.18585 0.12997 -0.17059 -0.16003 -0.11452 -0.06731 -0.02491 -0.03429 0.02502 0.09912 -0.17044 0.04595 0.07641 -0.08298 -0.05524 -0.06630 0.09636 0.05616 0.19409 0.15523 0.03216 -0.02605 0.01600 0.00476 0.04390 0.09328 0.24045 0.02845 0.02707 0.20036 -0.07267 0.14426 -0.09393 0.13792 -0.00404 0.03408 0.10112 -0.15107 -0.03060 -0.00196 -0.04281 0.16422 0.00553 0.17011 0.00194 0.00638 -0.04210 -0.07572 0.22338 -0.08992 0.05550 -0.08538 -0.19586 -0.11799 -0.00546 0.11392 -0.20402 0.25952 -0.04779 0.05236 -0.01067 -0.00417 0.00261 0.06521 0.03543 -0.02872 -0.08073 0.10878 -0.17427 0.01370 -0.03946 0.04546 0.01084 0.07274 -0.14148 -0.13282 0.12450 0.02702 -0.23222 -0.09989 0.07317 -0.03093 -0.13784 -0.02692 0.07646 -0.13897 -0.11358 0.08463 0.14759 -0.05040 -0.06101 0.03417 -0.13471 0.05739 -0.01491 0.10660 0.11373 0.06878 0.00846 0.00979 0.15112 -0.08114 -0.06181 -0.07149 0.06564 0.03207 -0.05509 -0.00879 -0.03888 0.08690 -0.11719 -0.00568 -0.08045 0.01689 0.05979 -0.07223 -0.10972 0.08742 0.02022 -0.00141 -0.03333 -0.05777 -0.03544 0.09412 0.00206 -0.17288 -0.10653 -0.06893 0.09348 -0.03594 -0.08252 0.02964 0.03714 0.03783 -0.06388 0.13351 -0.04594 0.06459 -0.00595 0.11405 -0.14466 0.11439 -0.04253 0.02347 -0.01202 -0.05021 0.02759 0.11578 -0.03938 -0.00898 0.00312 -0.11042 -0.00618 -0.06357 -0.29252 -0.24081 -0.00876 0.28327 -0.04254 0.16202 0.12603 0.26961 -0.16613 0.09190 0.10536 0.07781 0.12985 0.03571 -0.15250 -0.16272 0.21287 -0.11750 0.18302 0.21560 0.10639 -0.29888 0.08340 -0.01062 -0.04828 0.03527 0.07004 -0.08152 0.11277 -0.04450 -0.00739 0.15147 -0.14707 -0.02648 -0.00518 0.03723 0.02640 -0.19807 0.00198 -0.09941 -0.08706 0.00145 -0.08749 0.04876 -0.04119 -0.01044 -0.20622 -0.02543 -0.01309 0.09335 -0.08104 0.08781 0.10925 0.09768 0.17123 -0.05156 0.04677 0.12574 -0.00917 0.08018 0.09085 -0.07350 -0.06201 -0.03441 0.16839 0.11086 0.24929 -0.00337 0.08734 0.14838 -0.05216 -0.07172 0.08145 -0.01693 0.05102 -0.09257 -0.05782 -0.11046 0.04996 -0.06302 0.04612 -0.02480 -0.07865 0.06354 0.12226 -0.02671 -0.07810 0.02454 -0.06380 0.07305 0.02458 -0.01032 -0.05336 0.11028 0.05241 -0.02640 0.05380 -0.09077 -0.08246 -0.05845 -0.08666 -0.03909 0.03181 -0.15406 0.04086 0.01809 -0.10175 -0.04385 0.08090 -0.18781 0.11199 -0.01860 -0.05273 -0.02284 0.05912 -0.04550 0.25371 -0.01685 0.09096 0.04979 0.09342 0.02111 0.05735 -0.03515 0.12028 0.18965 -0.04487 -0.15062 0.12116 0.14465 -0.03694 0.09081 -0.05725 -0.13198 -0.24403 -0.12192 -0.22126 -0.06974 0.24110 0.00418 0.03833 0.09215 0.03244 -0.02482 0.15283 -0.12472 -0.09219 -0.17677 -0.08365 0.08476 0.17858 -0.29860 0.12354 0.01079 0.00102 -0.27451 0.05897 -0.09773 -0.10327 -0.12356 0.10686 -0.06139 0.22738 -0.10303 -0.17727 -0.03304 0.16670 -0.00566 0.21575 -0.23622 -0.02347 -0.07262 -0.10399 0.20819 -0.05044 -0.02450 0.05779 0.12038 -0.16862 -0.12520 0.05163 0.09371 0.09213 0.21013 0.11808 0.01591 0.04520 0.11016 0.00005 -0.05429 -0.00060 -0.00186 -0.01520 -0.02264 0.00640 0.02058 -0.12481 0.17297 0.08688 0.03377 0.14591 0.08071 -0.21052 0.10109 0.05014 -0.07610 0.11045 -0.16668 -0.01991 -0.02664 0.03342 -0.07191 0.01141 -0.11463 -0.00098 0.12442 0.09258 -0.16219 -0.03718 -0.00441 -0.18232 -0.01896 0.08412 -0.02225 -0.03830 0.03121 -0.06041 -0.01582 0.10851 0.04692 0.01386 0.04438 0.05577 -0.07504 0.14730 -0.01156 0.01682 0.01720 -0.00240 0.03381 -0.14713 -0.04324 0.13670 0.03686 -0.00829 -0.09191 -0.06697 -0.15800 -0.10053 -0.04573 -0.08106 -0.01576 0.03828 -0.08952 -0.00585 -0.03263 -0.17515 0.06644 -0.17511 0.04242
. 0.04994 0.07433 0.08861 -0.15747 0.04028 -0.07427 0.09511 -0.02180 0.03614 0.15958 0.05069 -0.05478 -0.15949 0.17156 -0.08498 -0.14733 -0.00770 -0.01795 -0.00262 -0.00729 -0.11363 0.00168 0.26309 -0.02664 0.06626 0.08082 0.18919 -0.02505 0.05287 -0.06095 -0.05168 -0.05407 0.14933 0.11725 0.03097 0.03880 -0.09460 -0.02973 -0.01721 0.10714 -0.20133 0.00662 0.09853 0.11171 0.09120 0.07213 -0.04550 0.01367 0.06397 0.08551 0.03304 -0.08510 -0.08355 0.03063 0.13827 0.02093 -0.04780 -0.13443 0.11528 0.03619 -0.05066 -0.07358 0.12768 0.03950 -0.01823 0.05949 0.06603 -0.10347 0.08032 0.12573 0.08861 -0.12674 0.05657 0.00397 -0.00922 0.01595 -0.04739 0.03812 0.00219 -0.07142 0.12343 0.01277 -0.02691 0.13687 -0.04924 0.02388 -0.03307 -0.00855 0.02564 0.16239 0.01756 -0.02024 0.14712 0.04829 0.12200 -0.01745 -0.19998 0.10954 -0.11837 0.17352 -0.08226 -0.08472 -0.05830 0.10832 -0.11532 -0.17782 -0.13426 -0.02869 -0.04721 -0.02564 0.18397 -0.02629 -0.13148 0.08077 0.24964 0.18369 0.15159 0.10525 -0.08148 0.02809 0.06816 0.09565 0.03231 0.24115 0.10233 -0.05421 -0.03173 0.10597 -0.09192 0.04617 -0.07249 -0.02184 -0.05644 0.13080 0.10598 0.03271 -0.04329 -0.01533 -0.08799 0.17427 -0.03039 0.07264 -0.08597 0.07534 -0.11038 -0.12611 0.13352 -0.04171 0.09371 0.02555 -0.24743 -0.07089 0.13354 0.13904 -0.37470 0.18913 -0.02705 0.08266 0.07468 -0.06889 -0.05848 0.02510 0.01987 0.06854 0.02115 0.10290 0.02129 0.13849 -0.15631 0.03021 0.01350 0.13884 -0.00887 0.03546 0.06958 0.08693 -0.11371 -0.16247 0.04296 -0.05335 0.12013 0.03532 0.21688 -0.10212 -0.07783 0.02851 0.14131 -0.13551 0.12074 0.02112 -0.09943 -0.00812 -0.16652 0.10250 -0.00017 -0.00792 0.09790 -0.04980 0.06951 -0.07329 -0.04523 0.06364 0.01006 -0.07962 0.06083 -0.05459 -0.00984 0.16894 -0.01398 -0.07842 -0.08916 -0.09692 0.06364 0.08683 -0.12091 0.10258 0.17048 -0.11821 0.12118 0.01181 -0.08560 0.04326 0.04938 0.11154 0.01209 -0.09693 0.01183 0.02777 0.02821 -0.08332 0.09179 -0.01376 0.03593 0.04573 -0.06804 0.05888 0.00984 0.06123 -0.18167 -0.06175 -0.01128 0.05497 0.15656 0.07283 -0.00992 0.02833 0.06506 0.11083 -0.11045 0.14985 -0.09108 0.10975 -0.00796 0.01265 -0.00128 0.06352 -0.03007 0.11218 0.21374 0.13358 0.05554 0.06308 0.01238 -0.01682 0.18812 0.11399 -0.36613 -0.06252 -0.05551 -0.09634 0.12746 0.15051 0.06880 -0.00681 -0.05440 -0.12717 -0.04701 -0.04776 -0.08637 0.03904 0.00555 0.09681 0.07464 0.02639 -0.14239 0.12049 0.11162 0.00361 -0.11239 -0.10565 -0.07456 -0.00257 0.03332 -0.20371 0.07986 -0.20268 -0.17212 -0.02752 -0.18391 0.14603 -0.09357 0.12915 -0.02272 0.12380 -0.07498 -0.06241 -0.10151 -0.00664 0.12481 0.12315 -0.02775 -0.07154 0.11717 0.12317 0.06751 -0.11406 0.09828 0.15945 0.02441 -0.00030 0.01907 -0.06067 0.03661 0.01727 -0.12361 -0.01098 0.05953 0.22227 -0.17880 -0.17661 0.14585 0.03215 0.05939 0.00524 0.08365 -0.10738 -0.03460 -0.10043 0.03816 -0.01003 -0.14930 -0.08466 -0.04108 0.01484 0.10304 -0.02279 -0.18997 0.11435 -0.00520 -0.01396 -0.27606 -0.15360 -0.05104 -0.05269 -0.00604 0.07914 0.11574 -0.05202 0.03379 0.02165 -0.00428 -0.02295 -0.01196 -0.19918 -0.10903 -0.01678 0.18397 -0.10765 0.02278 0.07553 0.16518 0.07841 -0.02984 0.10076 0.01937 0.09576 0.02961 0.23282 0.06184 -0.01198 0.15679 -0.02102 0.12124 0.01579 0.13923 0.00333 -0.05762 0.01163 -0.06474 -0.20642 0.13217 0.00225 0.03444 0.11772 -0.01291 0.12779 0.04353 -0.16197 -0.04110 -0.06740 -0.10041 0.00806 -0.02809 -0.15733 0.15406 -0.07834 0.06492 -0.19097 -0.01023 -0.03979 -0.02277 -0.16149 -0.05903 0.05134 0.19450 -0.00636 -0.11863 0.15845 0.02548 -0.03122 -0.00430 -0.18250 0.04126 -0.06399 0.05140 -0.04681 -0.14675 0.02857 -0.11168 0.08158 -0.07366 -0.03431 -0.15526 0.04378 0.08329 0.05328 -0.01373 0.04231 0.13122 0.03858 0.23840 -0.06956 -0.12419 -0.07264 -0.01250 -0.01699 0.00537 0.10669 -0.12716 -0.01437 0.04053 0.00544 0.00204 0.00541 -0.12898 0.11566 -0.03907 -0.06204 0.06104 -0.03180 -0.06200 0.10521 -0.05418 -0.06595 0.02283 0.01655 0.06833 0.07052 -0.14638 -0.07943 0.01733 0.11649 -0.05256 0.16706 -0.09525 -0.00137 -0.05887 -0.00116 -0.14991 -0.04854 0.13130 0.05450 0.13828 -0.05167 0.11016 -0.01709 0.11075 -0.15912 0.06357 -0.06761 0.08592 -0.04306 -0.01044 -0.10193 -0.10635 -0.01954 0.04643 -0.08009 0.09153 -0.04276 -0.03364 -0.07257 -0.14894 -0.06547 -0.07996 0.06937 -0.09046 -0.08499 0.00416 0.03744 -0.07395 0.10317
en 0.00791 0.06678 0.10890 -0.17280 -0.05575 -0.05537 -0.06759 0.05727 -0.10848 -0.12643 -0.11619 -0.11825 0.09350 0.14196 -0.01557 -0.03932 -0.01452 0.00128 -0.09499 -0.08387 -0.15454 0.02062 0.21678 0.01361 0.06993 0.07735 -0.02449 -0.01885 -0.12236 0.03699 -0.01173 -0.15645 0.07964 0.05966 0.00582 -0.08952 -0.05855 0.09204 0.02112 0.03283 -0.32952 0.00988 0.26183 0.05998 0.07975 -0.07810 -0.14121 0.04612 0.07851 0.23750 0.01402 0.09206 0.01372 -0.04547 0.05262 -0.04076 -0.22190 0.04205 -0.08832 -0.07166 -0.15138 -0.08121 0.17029 0.02892 -0.03970 0.08574 0.07134 -0.07990 0.07687 0.11420 0.09551 0.02431 0.10192 -0.06611 0.05268 -0.01216 0.01302 0.05398 0.06858 -0.10637 0.10103 0.01725 -0.01814 0.06522 -0.05217 0.12936 0.01292 -0.05606 -0.02594 0.16260 0.06205 0.01715 -0.06805 0.19863 0.11170 0.05445 0.00658 0.25112 -0.03253 0.28115 -0.15756 -0.05030 -0.19348 -0.03356 -0.15023 -0.13002 0.10488 0.16795 -0.10331 0.01960 0.06263 -0.27954 -0.00964 0.09703 0.05683 -0.11999 0.17887 0.19435 -0.06216 -0.02784 0.22707 -0.11837 -0.22371 0.08065 0.05057 -0.07036 -0.09746 0.16426 -0.07555 0.21195 -0.04445 0.20322 -0.14536 -0.04469 -0.08803 -0.17385 0.11032 0.04986 -0.07138 0.15210 0.01952 0.09398 -0.11425 0.00221 -0.07427 -0.09866 0.21536 -0.08756 -0.06662 -0.06423 -0.02010 -0.13826 -0.13810 0.15724 -0.21363 0.02626 -0.11949 0.09636 -0.04339 -0.00046 0.04635 0.03951 0.16170 -0.11375 -0.01245 -0.02601 0.17461 0.08339 0.09871 0.01767 -0.01180 0.12973 -0.23002 -0.04080 0.07051 0.07470 -0.16185 -0.15411 0.05825 0.05594 0.02756 0.11198 0.19192 -0.15609 0.02170 0.05793 0.10678 -0.02749 0.03732 0.16535 -0.03599 0.04808 -0.09433 0.17300 0.08122 0.03560 0.07437 -0.02891 0.19187 0.02147 -0.09337 -0.02737 0.05472 -0.06329 -0.01043 -0.15949 -0.03641 0.20225 0.11315 0.06432 -0.11702 0.05128 0.00381 0.12378 -0.02175 0.07276 -0.12623 0.04678 -0.02934 -0.13447 -0.02782 0.05481 0.08617 -0.04900 0.09590 -0.18095 -0.03922 -0.08250 -0.21802 0.02001 0.00425 0.02527 -0.07877 0.03321 -0.06855 0.14007 0.05578 0.07951 -0.07488 -0.06147 0.06821 0.09280 -0.01950 -0.07108 0.01055 0.07231 -0.00399 0.01191 -0.02971 0.12364 0.00235 -0.03136 -0.14523 -0.11087 -0.10162 0.12618 -0.12645 0.04565 0.24449 -0.05601 -0.09686 0.08338 0.13015 -0.11957 0.07370 0.06827 -0.09730 -0.10732 0.10965 -0.07642 0.16566 0.27891 -0.05393 -0.15980 -0.06508 -0.11533 -0.09394 -0.04195 0.06741 0.04442 -0.02904 0.00544 0.01179 -0.02660 0.02570 0.14463 0.15893 -0.01854 -0.07769 -0.03148 0.08337 -0.13869 -0.03385 -0.25302 -0.08347 -0.09051 0.01886 -0.04738 -0.17403 0.03794 0.17199 0.01709 -0.11563 -0.04887 0.06145 -0.13924 0.12562 -0.04189 0.05117 0.03418 0.09192 -0.00083 0.15906 0.07526 0.10181 -0.05024 0.00805 0.15449 0.03120 -0.10612 0.01118 -0.05264 -0.04739 -0.16593 0.04555 0.06573 -0.05544 0.06176 -0.06233 -0.10701 0.06261 -0.07751 0.01787 -0.05086 0.00361 -0.05487 0.07703 -0.01510 0.20090 -0.00569 0.03762 0.10319 0.01086 0.00063 -0.08539 0.02289 -0.06296 -0.10729 0.19304 0.09355 -0.09190 0.00162 -0.10109 0.00855 -0.03386 -0.13854 0.18627 -0.01837 0.07836 -0.13257 -0.06019 -0.17931 -0.01951 -0.07492 -0.06707 -0.06806 0.02340 -0.17788 -0.05377 -0.02849 0.07763 0.01855 0.05523 0.15560 0.03151 0.17803 0.07012 0.16246 0.12098 -0.11470 0.28961 0.08073 -0.10745 0.02764 0.03655 0.03655 -0.04958 0.02015 -0.10156 -0.09975 0.06719 0.16916 -0.07507 0.13787 -0.04042 0.07137 -0.00935 0.01738 0.14440 -0.11476 -0.03766 -0.02432 0.07820 -0.01853 0.02064 -0.02200 0.12826 0.04453 0.07767 -0.00761 -0.06502 -0.07888 0.09097 -0.09079 0.10772 -0.04137 -0.09641 0.00019 -0.06015 0.01055 0.06620 -0.14533 0.10798 0.01498 0.17364 -0.05773 -0.11539 -0.25354 -0.05311 0.05426 -0.22674 -0.15780 0.03611 -0.08551 -0.00840 0.13973 -0.13130 0.06661 -0.03783 0.18793 0.05688 -0.09888 -0.02028 0.12277 0.00948 0.02716 0.13733 0.00798 -0.06980 -0.03626 0.10223 0.01751 0.13371 -0.04876 -0.08236 0.07126 -0.11808 -0.04035 0.09252 -0.03236 0.02902 -0.07160 -0.07152 -0.00002 -0.11633 0.06617 0.08376 -0.03059 -0.04210 -0.20114 -0.00912 0.08580 0.02897 0.01989 -0.01515 0.03973 -0.01552 -0.10922 0.09503 -0.09718 0.04054 -0.12823 0.15192 0.03707 0.04773 0.02256 0.04804 -0.05461 0.06963 -0.01170 -0.17235 -0.00045 -0.04830 -0.14690 -0.05687 0.12924 0.03497 0.02326 -0.00167 -0.01670 0.06741 -0.07206 -0.14438 -0.08671 0.00164 -0.00463 0.11238 0.03580 0.05420 -0.05159 0.10339 0.03829
el 0.01731 0.09938 0.15940 -0.15666 0.07223 -0.02968 -0.07381 0.10944 -0.10514 -0.21601 -0.23012 0.04928 0.05872 0.18489 -0.00687 0.03003 -0.01202 0.02152 0.01171 0.09303 -0.12704 -0.05063 -0.05699 0.06140 0.04752 -0.04044 0.03532 0.04826 -0.07509 0.03000 -0.02699 -0.07134 -0.03425 -0.03903 -0.15834 -0.13122 -0.04773 0.04328 -0.06753 0.04263 -0.20612 -0.00099 0.08747 0.20105 -0.02544 -0.18472 0.01990 0.16906 -0.17739 0.00841 0.09204 0.07308 -0.22100 -0.15747 -0.01622 0.08224 -0.17615 0.16179 -0.13217 0.05022 0.04642 -0.10405 0.12492 0.10177 0.13636 -0.00636 0.10655 -0.16982 0.11797 0.00032 0.01486 0.01832 0.13936 -0.14992 -0.09374 -0.11321 -0.06124 -0.02517 0.02078 -0.01106 0.00369 0.00461 -0.04765 -0.03471 0.01170 0.09682 -0.17322 -0.01035 0.05406 0.09443 -0.11593 0.09893 -0.12050 0.09359 0.01194 -0.02085 0.02089 -0.02446 0.04500 0.19005 -0.06915 0.07753 -0.03993 0.06533 -0.00708 -0.14469 -0.08239 0.06893 -0.17004 0.11122 -0.09493 -0.21245 -0.03537 0.03590 0.11340 -0.07426 0.07317 0.15273 0.06007 0.04721 0.23021 -0.13356 -0.04862 0.09220 0.02892 -0.04140 -0.10690 0.03538 -0.08069 0.16157 -0.02582 0.04630 0.09957 -0.01848 -0.01934 -0.16705 -0.05508 -0.08513 -0.02443 0.16324 -0.03038 0.11065 -0.07994 0.07486 -0.10929 -0.18246 0.02606 -0.00743 0.12736 -0.02084 -0.04365 -0.29511 -0.09196 0.00689 -0.27894 0.05284 -0.01046 0.11626 -0.09704 -0.10042 0.02688 0.08802 0.08269 0.03991 -0.17502 0.02345 -0.12335 -0.05019 0.15168 0.02977 0.12058 0.27422 -0.01183 0.00743 0.18439 -0.04383 -0.26290 0.06316 0.11904 -0.03751 -0.00657 0.14800 0.17045 -0.10735 -0.19701 0.12950 0.02910 0.10115 0.16939 0.10185 -0.05785 0.18970 0.09302 0.07560 0.00777 -0.09071 0.12287 0.10769 0.13738 0.03142 -0.00548 0.07872 -0.07586 -0.11408 -0.06907 -0.22573 0.12323 0.12917 0.19701 -0.11761 -0.01354 -0.11267 0.03795 0.06104 -0.07402 0.05234 -0.16792 0.01943 0.00711 -0.10073 -0.05970 0.23698 -0.05613 0.06294 0.07567 -0.13716 -0.07861 -0.06310 -0.06728 0.06689 -0.05435 0.00604 0.11183 -0.03717 -0.04157 -0.02121 -0.00621 -0.00571 0.01125 0.01710 0.05950 -0.05258 -0.04721 0.01646 -0.16075 0.02297 0.07583 -0.12796 -0.06733 0.04363 -0.02114 -0.04650 -0.12887 -0.02407 0.02742 0.20987 0.04123 -0.07112 0.18664 0.08094 -0.04080 0.09358 0.03191 -0.01295 0.06995 -0.15912 -0.26827 -0.06441 0.13926 0.03979 0.26637 0.28688 0.00363 -0.16476 0.05138 -0.09999 -0.02807 0.03930 -0.02416 0.09851 0.14374 0.12815 0.00744 0.02588 -0.11182 0.20631 0.05439 0.14629 -0.10173 -0.10573 0.06448 -0.11600 0.11236 -0.11292 -0.15247 -0.15142 0.07837 -0.17028 -0.18203 0.13076 0.09065 0.05288 -0.11908 -0.00864 0.16149 -0.01177 0.08655 -0.09793 0.17769 -0.02828 0.16466 -0.19102 0.12835 -0.02232 0.16402 -0.07499 0.20239 -0.00201 0.06259 -0.14925 -0.15565 0.04089 -0.03074 -0.10676 0.05358 -0.07376 -0.00613 0.36925 -0.14117 -0.16764 0.01962 -0.18023 0.10381 -0.01993 -0.05808 0.16510 0.12068 -0.07334 0.10756 -0.08235 -0.06932 -0.01736 0.12313 0.21969 -0.06760 -0.02752 -0.03647 0.04150 0.02838 -0.11549 0.02611 -0.05367 -0.26881 0.00105 -0.03259 0.01513 0.10918 -0.05259 0.12629 -0.21706 -0.23086 -0.09284 -0.03907 -0.14706 -0.11047 -0.05912 -0.01325 -0.04245 0.12470 -0.07667 -0.01872 -0.02861 -0.08803 -0.00925 0.11331 0.07602 0.11944 0.09602 -0.05926 -0.02372 0.05947 0.05432 0.13389 -0.15389 -0.01895 -0.07751 0.02903 -0.03545 0.04865 0.11404 0.09472 -0.02210 -0.10749 0.16137 -0.12319 0.08118 0.04237 -0.05217 -0.03252 -0.05704 0.05365 -0.08016 0.06305 -0.09278 -0.10034 -0.06503 0.01222 -0.11548 -0.01360 -0.00187 -0.05684 -0.08088 -0.02859 -0.10701 0.04391 0.03829 -0.11964 0.10312 0.03705 0.04647 0.06640 -0.11968 -0.03996 -0.08650 -0.06705 0.01942 0.04084 0.04482 0.04521 0.15556 -0.13590 -0.10500 0.01565 -0.05922 0.07815 -0.09085 0.08387 0.03784 -0.04395 0.21617 0.02138 0.08034 0.00451 0.02127 -0.01685 0.00386 -0.09479 0.09182 -0.03243 -0.07110 -0.02914 -0.01865 -0.05673 -0.02684 -0.02679 -0.02651 -0.07691 -0.09870 -0.13030 0.00234 0.03934 0.09623 0.00622 -0.20370 -0.12849 0.03988 0.00091 -0.05403 -0.11498 -0.04600 0.14876 -0.00338 0.02799 0.12261 0.00957 0.07277 0.00440 -0.03729 -0.08052 -0.00959 0.09229 -0.05064 0.04718 0.05059 0.16709 -0.06677 -0.12747 -0.11068 0.00751 0.03103 -0.24643 -0.06978 0.02678 -0.04483 0.00975 0.05172 -0.03339 -0.00649 -0.01809 0.03407 0.09736 0.02127 -0.08738 -0.01539 -0.00586 -0.05688 0.01572 0.00879 -0.05385 0.00609 0.07932 0.09122
y -0.09476 -0.00441 0.11317 -0.11570 0.03164 -0.05185 0.11387 0.03336 -0.01422 0.01833 -0.06221 0.09330 -0.14444 0.04013 -0.15105 -0.04429 0.04107 0.04991 -0.04371 0.02711 -0.02173 -0.02223 0.05464 0.00905 0.06592 -0.02420 0.11143 0.04622 -0.00048 -0.09231 -0.02520 0.13386 0.06195 0.12786 -0.12559 -0.03025 -0.02419 0.05647 0.02526 0.00297 -0.19225 0.05044 0.08734 0.04566 0.08313 -0.05583 -0.05009 -0.01514 -0.07419 0.05787 0.07971 -0.13745 -0.11236 -0.07002 -0.04336 -0.02844 -0.27654 -0.05097 0.00499 0.09545 -0.06348 -0.07599 0.08945 0.13648 -0.09473 0.05415 0.14208 -0.04801 -0.02171 0.01309 0.10465 0.00721 0.07322 -0.03586 -0.04048 0.13221 0.04356 -0.01363 0.02834 -0.06634 0.01397 -0.04368 -0.09999 0.09563 0.03417 0.12727 -0.09611 -0.07662 -0.01491 0.04478 0.01966 -0.05057 0.03291 0.03767 0.08463 -0.02191 -0.01805 0.10630 -0.12583 0.04893 -0.10049 -0.13425 -0.13547 0.11866 -0.14913 -0.06697 -0.14963 0.02642 -0.11000 -0.00163 0.05921 -0.07013 -0.04707 0.09777 0.14693 -0.01380 0.11952 0.05082 -0.04547 -0.04016 0.11661 0.10667 -0.01976 0.15104 0.09867 -0.02024 0.01914 0.13936 -0.03272 0.08732 -0.03144 0.11288 -0.11822 0.06876 0.04616 -0.09723 0.02651 -0.06096 -0.15619 0.12408 -0.14977 -0.00096 0.07790 0.08146 -0.04178 -0.04076 0.03727 -0.05395 0.16777 -0.01034 -0.10011 -0.02752 0.11743 0.01684 -0.26247 0.00071 0.03284 0.09486 0.08431 -0.00312 -0.06514 -0.01388 0.01429 -0.00982 0.06829 0.14076 -0.03067 0.05271 -0.03872 0.07146 0.12930 0.06445 0.06109 -0.04825 0.03538 -0.02812 -0.08660 -0.03271 0.10653 -0.03814 0.04614 -0.00847 0.15317 -0.01535 0.02812 0.07306 -0.06077 -0.07195 0.05444 0.14212 -0.01878 0.06761 -0.08311 0.06799 0.17324 0.05064 0.04287 0.02568 0.06730 0.01986 -0.06514 0.07439 0.01692 0.03061 0.01606 -0.07034 -0.03602 0.05390 0.01955 -0.06625 -0.07772 -0.06916 0.00386 0.07706 -0.05381 0.01239 -0.01323 -0.09452 0.05162 -0.10980 -0.06244 0.06257 0.05816 0.03155 0.00288 -0.03507 0.01196 0.02839 0.02773 -0.07290 0.12159 -0.03246 0.10217 0.02714 -0.01637 0.02097 0.07210 0.08960 -0.00380 0.00089 -0.06646 -0.08788 0.01685 0.17568 -0.09044 0.01164 0.02667 -0.03760 -0.14111 -0.04932 -0.09050 0.07079 -0.18045 0.00084 -0.09980 0.14091 -0.06132 -0.04086 0.30934 0.19291 0.07541 0.00541 0.09246 -0.05029 0.24642 0.17559 -0.20871 -0.02083 0.02409 -0.06421 0.20316 0.16134 -0.01996 -0.09957 0.02717 0.01089 0.01084 -0.08951 -0.07364 -0.01260 -0.01711 0.06270 -0.05930 0.00711 -0.05473 0.05075 0.10334 0.01893 -0.04379 -0.12291 -0.00390 -0.02165 -0.07622 -0.13634 0.07353 -0.11963 -0.02194 0.00770 -0.04753 0.01318 -0.03557 -0.01213 0.00142 0.03851 0.05914 -0.01010 0.05076 0.10867 0.08181 0.02039 -0.06112 -0.00993 0.19308 0.07038 -0.00691 -0.07242 0.07027 0.08996 -0.00613 -0.09681 0.01973 -0.03261 -0.06735 0.02418 0.01587 -0.01823 0.06443 0.11631 -0.12414 -0.11999 -0.06401 0.00042 -0.05620 0.01942 0.02407 -0.03715 0.05899 -0.13498 -0.00811 0.08183 -0.12456 0.08634 -0.04898 -0.00442 0.04527 -0.05579 -0.12219 0.01366 0.06696 0.00359 -0.13043 -0.10824 -0.16135 -0.06949 0.03467 0.00434 0.18257 -0.03520 0.15158 -0.16076 -0.17603 0.03981 0.03840 -0.07347 -0.13851 -0.11029 0.08730 -0.07201 0.02662 -0.04880 0.06090 0.01373 0.09648 0.04276 0.05083 0.13000 0.19545 0.25107 0.06401 -0.10155 0.13598 -0.00204 0.02155 -0.03427 0.06729 -0.00274 -0.09131 0.04550 -0.01043 -0.19094 0.07178 -0.01506 -0.01086 0.19670 0.03119 0.03173 -0.00202 -0.10419 0.00306 -0.05003 0.03094 -0.07722 0.03023 -0.19006 -0.03143 -0.04414 0.03431 -0.12556 -0.05700 -0.06000 -0.02036 -0.15268 -0.02218 -0.05051 0.15828 0.03104 -0.10370 0.10285 0.09149 -0.00062 0.07366 -0.14188 0.01343 -0.04551 -0.03253 0.11252 -0.02668 0.05996 -0.10769 0.01166 -0.05204 -0.02650 -0.04049 0.01768 0.09721 0.04056 0.00591 0.04532 0.13309 -0.00833 0.04627 -0.00931 -0.00218 0.03416 0.13253 0.04571 -0.04664 0.07980 -0.09483 0.06698 0.00449 -0.14632 0.03422 0.00680 -0.10285 0.05888 0.07465 -0.03444 -0.01522 -0.01428 -0.13241 0.17438 -0.10782 -0.13431 0.02331 0.08795 -0.01249 0.03906 -0.03350 0.01615 0.07750 0.09719 -0.00160 0.14320 0.06585 -0.00347 0.00412 0.02703 -0.08939 -0.06312 0.04838 -0.03114 0.08735 -0.01970 0.10631 -0.15375 0.06364 -0.02589 -0.02454 -0.03611 -0.04967 0.03824 -0.00805 -0.04226 -0.10086 0.00088 0.02366 -0.03646 0.04394 -0.05445 0.08260 -0.10649 -0.07877 -0.04512 0.05978 0.06767 -0.03259 -0.01006 -0.00977 0.04184 0.12300 -0.04179
a -0.15530 -0.07677 0.10649 -0.38146 0.31148 -0.06381 0.10717 0.04377 0.05342 0.07515 -0.14629 0.18601 -0.16951 0.07633 -0.07520 0.04558 0.03991 -0.10808 0.00101 -0.08838 0.04910 -0.03027 0.11012 0.07013 0.05683 -0.10925 -0.00025 -0.05489 -0.09764 -0.02669 -0.07513 0.08793 0.24748 -0.07052 0.01777 -0.07623 0.08834 -0.11489 0.16560 0.14432 -0.10670 -0.01683 0.12388 -0.03525 -0.06865 0.03398 0.05662 -0.02070 -0.04295 0.17716 0.04499 -0.04954 0.08527 -0.12538 -0.28750 0.03680 -0.09933 0.00519 -0.00135 0.06699 0.03014 -0.07669 0.03704 0.08531 0.08137 -0.01805 0.14132 -0.14955 0.27791 -0.01876 -0.05297 -0.03878 -0.09989 -0.03116 0.12481 0.22030 -0.03382 0.22295 -0.14047 -0.05990 -0.01709 0.01075 0.02362 0.01059 -0.08773 0.06003 -0.00363 -0.06025 -0.09388 0.03453 0.07778 0.08114 0.09735 0.16947 0.02310 0.20208 0.06502 0.17105 0.02929 0.10548 0.05605 -0.11281 -0.06391 -0.04894 -0.08313 0.00937 -0.02524 0.02162 -0.05615 0.28607 0.12374 -0.22289 -0.07746 -0.04336 0.02247 0.01949 0.06270 0.23321 -0.10999 0.02477 0.03044 -0.02189 0.16005 0.07712 0.19522 -0.08643 0.08568 0.20949 -0.20124 -0.03940 -0.13083 0.03943 -0.13178 0.05315 0.04156 -0.23033 -0.02685 -0.23182 -0.06977 0.10458 -0.13889 0.06775 0.15316 0.08543 -0.02060 -0.14962 0.09858 -0.05712 -0.04354 -0.19381 -0.13548 -0.02296 -0.07372 -0.08435 0.02211 0.19916 -0.03504 -0.08089 0.00449 0.07732 -0.01867 0.06009 -0.13962 -0.00047 -0.00020 0.18088 -0.24158 0.06313 -0.16432 0.11476 0.13766 0.05090 -0.08503 0.05673 0.09850 0.05289 -0.05456 -0.07456 -0.00084 -0.13140 -0.04769 -0.11889 0.24835 -0.22677 0.12474 0.05391 0.08770 -0.19988 -0.05043 0.26982 -0.09551 0.04271 -0.02149 -0.09003 0.11178 0.10367 0.15764 -0.17610 0.17405 -0.03999 0.00691 0.04721 0.03908 -0.01287 0.00212 -0.02274 -0.05945 -0.06599 -0.04248 -0.07243 0.08416 0.18557 -0.08935 -0.06028 -0.12024 0.01608 0.03783 0.23994 -0.09513 -0.25097 0.06209 -0.05690 0.10890 -0.17114 0.12235 -0.15995 0.00153 0.11210 -0.15790 -0.12658 0.14802 -0.03244 0.08439 0.15401 0.16100 0.00378 -0.04740 0.02375 -0.06983 0.00709 -0.11912 -0.01930 0.01278 0.05430 -0.08200 0.19943 -0.00337 -0.00785 -0.22073 -0.13239 -0.14462 0.02080 -0.27583 -0.06407 -0.00568 0.02612 0.07012 -0.05364 0.22081 0.14827 -0.10837 -0.05214 0.08394 0.02342 0.30984 0.21318 -0.03305 -0.16629 0.11832 -0.19055 0.15569 0.06108 0.03706 -0.17462 -0.00652 -0.14106 -0.14462 -0.03377 -0.03206 -0.12984 -0.07203 -0.06039 0.05528 0.09950 0.03236 0.10786 0.13045 -0.02092 -0.13192 -0.15758 -0.06289 0.10529 0.07280 -0.11466 -0.05391 -0.12766 0.09169 -0.06977 0.01494 0.04100 -0.04568 -0.16815 -0.09336 0.01133 0.02361 -0.04484 0.07393 0.01160 -0.11291 0.09398 -0.04662 -0.13891 0.14665 0.18406 -0.05027 -0.14985 0.15464 0.06618 0.14936 0.08076 0.00277 -0.06032 0.13152 0.00229 0.14425 -0.07282 0.16392 0.25462 -0.06390 -0.14735 0.11137 -0.07119 -0.21044 -0.02592 -0.00326 -0.01306 0.06919 0.09009 -0.25873 0.09023 -0.09103 -0.00966 -0.12836 0.02240 -0.07214 -0.10440 -0.24754 -0.01807 0.00072 -0.05193 -0.19815 0.00614 -0.09340 -0.04171 0.02768 -0.15266 0.01795 0.11928 0.09150 0.06739 0.09195 -0.06055 -0.08405 0.06655 0.00982 -0.04892 0.01548 0.00833 0.14886 0.14646 0.11658 -0.07062 0.14391 0.11546 -0.23146 0.08484 0.08757 0.17210 0.03191 -0.03193 0.17479 0.00814 0.00048 0.05918 0.09147 -0.02610 -0.18823 -0.01345 -0.20011 -0.20815 0.06986 -0.22361 0.09133 0.09720 -0.04884 0.11378 0.09184 0.10785 -0.09525 -0.10143 -0.02366 0.10827 0.04275 -0.15674 0.04951 -0.11451 -0.12183 -0.02232 0.15590 -0.09358 0.21871 0.00300 0.03544 0.05808 0.19416 -0.04561 -0.21505 -0.19608 -0.02598 -0.02366 0.10622 -0.17868 0.10005 -0.00298 0.02327 -0.00549 0.02834 0.04437 -0.01835 -0.08553 0.06687 -0.18338 -0.07350 0.21785 0.00012 0.16183 -0.21823 -0.02387 0.16041 -0.00487 -0.02216 -0.07542 0.02151 0.00742 0.01122 -0.11331 0.01254 0.18903 -0.10807 0.05966 -0.09552 -0.05610 0.14487 -0.08199 -0.06515 0.11453 0.01635 -0.01695 0.03532 -0.10496 -0.14624 0.25353 -0.15903 0.16963 -0.07624 0.06091 0.00210 0.10654 -0.19634 -0.17546 0.02396 0.01756 -0.01649 0.12683 -0.02203 -0.07542 -0.06439 0.16576 -0.07652 -0.07564 0.18065 0.07757 -0.07219 0.08543 0.11444 -0.05783 0.18581 -0.07090 0.09555 -0.14413 0.19157 -0.00818 -0.04264 0.11914 0.09484 -0.01305 0.13863 0.07917 0.23707 -0.21095 0.05709 -0.21202 0.04025 -0.00251 0.11802 -0.11463 0.01312 0.03285 -0.08256 -0.08994 0.04430 -0.05695
