2152760 512
the -0.04956 -0.01197 0.14505 -0.10008 0.14830 -0.10964 -0.04418 0.11992 -0.02125 0.10616 -0.10455 0.06368 0.01359 -0.03832 -0.02639 0.10132 0.05059 0.06896 -0.10071 -0.03177 -0.13986 0.03738 0.05351 0.13077 0.05634 -0.00900 -0.00209 -0.05491 0.06126 -0.08192 0.05617 0.10589 0.02712 0.08326 0.12234 -0.05661 -0.05171 0.10265 -0.00514 0.07296 -0.26019 0.05472 0.12091 0.12761 0.12087 -0.10213 0.02838 0.01745 -0.00237 -0.08361 0.12408 -0.06445 -0.05405 -0.06952 0.02481 -0.00141 -0.05453 -0.00084 -0.07042 0.03293 0.04054 -0.25743 0.13578 0.04925 -0.06695 0.02677 0.11946 -0.12294 0.21835 0.12062 0.09708 0.00197 0.07804 -0.14339 0.02141 0.05492 0.00750 0.07571 0.07805 -0.02909 0.09752 0.06079 0.02839 -0.08304 0.03117 0.04800 0.01984 -0.06550 0.03736 0.08511 -0.09689 0.15553 -0.05393 0.11918 0.04435 -0.13149 -0.08971 0.09183 -0.03293 0.20963 -0.08960 -0.08669 -0.01304 0.07802 -0.06593 -0.09842 -0.00280 0.11375 -0.18613 0.08460 0.05264 -0.11459 -0.00365 0.12292 0.12507 0.05502 0.06167 0.20058 0.03754 0.10085 0.06535 -0.09776 0.05169 0.10455 0.16286 -0.03096 -0.00268 0.27823 -0.10762 0.12583 -0.15492 0.16604 0.01444 0.05599 0.01429 -0.20209 -0.05766 -0.05909 0.01027 0.12699 -0.11753 0.17633 0.09911 0.00925 -0.02395 -0.17897 0.16634 0.00438 0.01155 0.02998 -0.01403 -0.19463 -0.02208 0.05914 -0.23566 0.25496 -0.00584 0.04976 -0.07080 -0.01827 0.02841 0.09207 -0.01266 0.01921 -0.08345 -0.00385 -0.02847 0.11840 -0.01724 0.06089 -0.05451 0.21065 -0.05455 -0.10689 0.13023 0.01186 -0.22504 -0.05599 0.03602 -0.05950 0.03214 0.13906 0.13827 -0.05453 -0.10630 0.11947 0.07499 -0.11468 0.14044 0.01980 -0.07160 0.09855 0.01037 0.05946 0.06751 -0.04639 0.04978 0.03018 0.06112 -0.05841 -0.02433 0.03864 0.07144 0.00130 -0.06104 -0.23199 -0.03444 0.07250 0.04518 -0.04621 -0.04980 0.04402 0.02371 -0.00033 -0.03411 0.01158 -0.07056 -0.04840 0.00220 -0.14344 -0.07412 0.11159 -0.02555 -0.12291 -0.10908 -0.15085 0.03075 0.02258 -0.13536 0.05552 0.00109 0.00272 -0.00188 0.08029 0.00684 -0.01813 -0.07636 -0.00207 -0.01351 0.06134 -0.04324 0.11566 -0.01786 0.02619 0.08755 0.03366 -0.04545 0.04486 -0.13137 -0.03903 -0.12192 0.05127 -0.19218 -0.11167 -0.05121 0.14593 -0.00068 -0.02414 0.01585 0.16121 -0.04152 -0.01077 0.06277 -0.01759 0.06303 -0.00410 -0.13918 -0.24669 0.19339 -0.13667 0.07118 0.15608 -0.01250 -0.15159 0.06357 -0.09520 0.01590 -0.01206 -0.03188 -0.06942 -0.03702 0.02744 0.00031 0.09759 -0.02027 0.08129 0.04649 0.07365 -0.07588 -0.10401 0.07584 -0.07010 -0.04255 0.02110 -0.07691 -0.04223 -0.02925 -0.04671 -0.20672 0.10227 -0.00659 0.10450 -0.15704 0.01182 0.15762 0.06253 0.08662 -0.11155 0.14007 0.06394 0.06546 -0.04496 0.13088 0.01991 0.08829 -0.07123 0.12176 0.03115 0.13281 -0.00332 0.01616 0.09522 0.05821 -0.01028 0.11758 0.05797 0.01113 0.08977 -0.13520 -0.08566 0.10957 -0.06751 0.04861 0.06816 -0.03699 0.00694 0.13220 0.01657 0.05679 0.08594 -0.07505 0.09765 0.01635 0.02970 -0.15237 0.02360 -0.01473 -0.06037 0.01654 -0.11229 -0.02730 -0.06354 -0.17429 -0.03904 -0.07009 -0.01270 0.10831 -0.09001 0.11843 -0.12252 -0.07846 -0.13646 0.07921 0.01827 0.02417 0.03603 -0.00965 -0.05516 0.15162 -0.01866 -0.00724 0.08790 -0.00783 0.06179 -0.00839 -0.04930 0.13488 0.07378 0.06760 -0.19410 0.07743 0.16400 0.04473 0.07350 0.02793 0.00473 -0.13213 0.03472 -0.14002 -0.09765 0.20257 0.14344 -0.01782 0.14516 0.02385 -0.04396 0.16627 -0.10284 -0.04168 -0.10326 0.06557 0.05244 0.12493 -0.19112 0.10868 -0.02700 0.01320 -0.09783 0.09403 -0.12779 -0.02901 -0.22114 0.03045 -0.07735 0.09762 -0.05905 -0.16358 0.02133 -0.04098 0.02991 0.05195 -0.23151 0.02255 0.02995 -0.07098 -0.06553 -0.02434 -0.06863 -0.08218 0.11325 -0.16373 -0.17318 0.02822 0.08400 -0.00976 0.08859 0.07664 -0.01925 -0.02717 0.17596 -0.04793 0.10848 0.07148 0.05840 0.02616 -0.06354 -0.11206 -0.00669 -0.09226 -0.00744 0.07908 0.09713 0.05834 -0.00777 -0.06933 0.01445 -0.00845 -0.00329 0.03287 -0.05349 -0.01144 -0.00418 -0.01818 -0.08723 -0.14666 -0.11011 0.06533 0.07705 0.07831 0.00216 -0.04699 0.00234 -0.02170 -0.03569 0.16083 0.02016 -0.13854 0.02349 -0.01213 0.04319 0.11510 -0.07871 -0.03980 0.00338 0.03117 -0.14323 -0.08246 -0.05293 -0.01238 -0.09675 -0.18163 -0.03616 0.00572 -0.05895 0.08501 -0.07587 0.01354 -0.01579 -0.05640 -0.05984 -0.06103 -0.01894 -0.04481 0.00384 0.04066 -0.06540 -0.02743 -0.01928 -0.01931 0.07752 0.00636 0.10969
, -0.07791 0.00553 0.05252 -0.12768 0.06143 -0.09696 0.11175 0.10890 -0.03855 -0.04467 -0.28599 -0.01832 -0.02415 -0.04051 -0.16235 -0.03042 0.05392 0.00965 0.06590 -0.10626 0.03256 -0.05178 0.10252 -0.03266 0.10947 -0.01126 0.03515 -0.06065 -0.04810 0.02670 -0.04771 0.03695 0.09394 0.07579 -0.02908 -0.06305 -0.03475 -0.01010 0.00887 0.05162 -0.32196 0.07714 0.13575 0.09037 -0.04006 -0.05247 -0.01064 0.07437 -0.01975 -0.01612 -0.01161 -0.07136 -0.10724 -0.17881 -0.05601 -0.01235 -0.21399 -0.01626 -0.05029 0.03088 0.02935 -0.15292 0.14194 -0.03408 -0.11111 0.04353 0.12573 0.00636 0.10755 0.00631 0.08140 -0.01438 0.06059 -0.12699 -0.09389 0.08927 0.17132 -0.02282 0.02801 -0.02622 0.05654 0.07148 0.03908 0.08086 0.05993 0.10038 -0.02783 -0.08224 -0.00793 -0.00108 -0.02867 -0.04685 0.03725 0.00145 0.04563 0.03138 -0.02763 0.07164 -0.05113 0.13967 -0.02170 -0.08409 -0.06839 0.07439 -0.01685 0.01905 -0.06557 0.04999 -0.03615 0.05406 0.05300 -0.11639 0.01312 0.04790 0.10440 0.04625 0.12487 0.19616 -0.01035 0.04221 0.03932 -0.05294 -0.17704 0.02668 0.12875 -0.03815 -0.07170 0.06994 -0.05608 -0.07895 0.00976 0.07483 -0.15552 0.05561 -0.02837 -0.10651 -0.02122 -0.01286 -0.00584 0.18494 -0.05161 -0.02152 0.04903 0.09542 -0.00298 -0.09050 0.00643 -0.01194 0.12484 -0.09504 -0.02362 -0.04866 0.00999 0.00019 -0.18941 0.03913 -0.13006 0.02803 -0.09361 -0.01707 -0.06690 0.06764 0.12081 -0.11993 -0.00383 0.20579 -0.03082 0.08567 -0.01918 0.04511 0.07152 0.16365 -0.05897 -0.11721 0.10294 -0.06008 -0.11235 -0.07076 0.03334 -0.08524 0.03023 -0.11682 0.10404 0.01192 -0.00439 0.02835 0.05619 -0.15947 0.02973 0.16372 0.01765 0.07840 -0.04694 0.07563 0.01506 0.03056 0.10534 -0.06252 -0.07727 -0.03130 -0.08600 -0.03332 0.07104 -0.02270 0.08233 -0.06944 -0.02177 0.03807 -0.02040 -0.04137 -0.13501 -0.02877 -0.04229 0.13096 -0.00293 0.09976 -0.11057 0.00786 0.10695 -0.13474 0.06178 0.05794 0.06769 -0.02864 0.06339 -0.04015 -0.16924 -0.00015 -0.08649 -0.11779 -0.00123 -0.09135 0.03294 0.03967 -0.02253 -0.11125 0.00552 0.15609 -0.00491 -0.05621 -0.08151 0.00547 0.03533 0.13796 -0.08180 0.06016 -0.00748 -0.07980 -0.10769 0.00913 -0.05516 -0.03898 -0.13331 -0.10638 -0.07794 0.12407 -0.11288 -0.01191 0.20112 0.18249 -0.00770 0.09351 0.04945 -0.09123 0.04586 -0.01217 -0.13437 -0.12147 0.10157 -0.11708 0.20824 0.13783 -0.04874 -0.07155 0.11638 -0.04382 0.09687 -0.09940 -0.00981 0.02090 -0.02768 -0.08064 -0.03481 -0.03309 -0.02279 -0.03078 0.02255 0.02960 -0.02464 -0.10932 -0.06315 -0.11716 0.03164 -0.11808 -0.04854 0.06766 0.01947 -0.04503 -0.10411 -0.03268 -0.05416 0.07587 -0.02244 0.10047 0.05993 0.00740 0.13672 0.04803 0.03255 -0.00642 0.07965 -0.02328 0.14987 0.12697 -0.01596 0.02528 0.10067 0.08945 0.04200 -0.09291 -0.00252 -0.07325 0.03341 0.00418 0.01362 0.11449 0.04410 0.08733 -0.05016 -0.00859 0.04017 0.00111 -0.05127 0.04439 0.03737 -0.01952 0.15354 -0.06848 0.05221 0.11362 -0.05055 0.06968 0.03605 -0.01370 0.14584 -0.08193 -0.06149 0.00264 0.13463 0.03142 -0.08531 -0.10186 -0.12498 -0.02553 0.02551 0.00081 0.04788 0.00539 0.14183 -0.00480 -0.18196 -0.02730 -0.08288 -0.10829 -0.12277 -0.15863 0.05727 -0.14122 -0.09923 -0.08909 0.08193 0.03278 0.08301 0.09898 -0.01591 0.07483 0.24816 0.15577 0.06493 -0.12133 0.26780 0.06568 -0.02852 -0.05297 -0.01438 -0.02751 -0.05246 -0.04316 -0.03926 -0.20465 0.05396 0.16311 -0.05529 0.18185 0.01340 0.10860 0.04621 -0.08603 -0.00753 -0.03892 0.07714 0.04735 0.11502 -0.18746 -0.06544 -0.05317 0.11384 -0.16740 0.06129 -0.04187 -0.08630 -0.06987 0.01116 -0.02349 0.09724 -0.08980 -0.12365 0.02838 -0.04782 0.03896 0.02676 -0.12129 0.07295 -0.02559 -0.01247 0.10589 0.03945 -0.03255 -0.03059 0.12307 -0.09442 -0.08123 -0.11733 0.06819 0.08068 -0.04883 -0.02224 0.06213 0.04996 0.13717 0.05726 -0.04316 -0.07816 -0.06191 0.00700 0.00215 0.03976 -0.00319 -0.05687 0.08992 0.00376 -0.15365 -0.01341 -0.01239 0.05774 0.00384 -0.03825 -0.09313 0.11208 -0.01606 -0.06717 0.08886 -0.11227 -0.07565 -0.09366 -0.04258 0.04932 0.02471 0.00249 -0.05934 0.05161 0.02427 -0.08196 0.04585 0.08835 0.09002 0.06028 -0.02228 0.00592 -0.05386 0.11692 -0.13266 0.01184 -0.06582 0.09235 -0.13189 0.07905 0.10013 -0.05860 -0.08839 -0.01893 0.03531 0.00001 0.04417 -0.05061 -0.01757 0.10672 -0.03901 -0.02846 -0.08124 0.06678 -0.07290 -0.13559 0.01198 0.04276 0.02433 -0.00233 0.01233 -0.00157 0.01111 0.10030 -0.04073
</s> 0.04396 0.03375 0.12480 -0.06623 0.04194 -0.17179 0.02242 -0.02918 -0.03562 0.07880 0.07647 0.05703 -0.08000 0.01966 -0.17311 -0.03949 0.01023 -0.02382 -0.03187 -0.23112 -0.08828 0.04035 0.28601 -0.11876 0.04952 0.04792 0.17301 -0.07132 0.05460 -0.07188 -0.05547 -0.12622 0.23204 0.07011 0.01840 -0.09900 -0.04227 -0.00971 -0.05545 0.10694 -0.20535 -0.01926 0.16251 0.15009 0.10873 0.00279 -0.08408 -0.01209 0.03241 0.08324 0.07285 -0.14018 -0.00329 -0.04897 0.10046 0.09616 -0.04909 -0.14431 0.17824 0.00595 0.06683 -0.02374 0.12592 -0.04380 -0.20643 0.07087 0.05769 -0.06748 0.04867 0.05430 0.08345 -0.28555 0.02297 -0.07622 0.09585 0.00833 -0.02270 0.02622 0.03982 -0.07783 0.04106 0.01051 0.04164 0.18954 -0.02713 0.02011 -0.02763 0.00334 0.03443 0.11696 0.00318 -0.02371 0.09036 0.05005 0.11111 0.03872 -0.15561 -0.00295 -0.13428 0.23104 -0.06642 0.00867 -0.00256 0.16663 -0.20979 -0.17686 -0.08359 0.00242 -0.02935 -0.00455 0.23465 -0.05624 -0.06937 -0.02587 0.18752 0.27012 0.12607 0.05219 -0.09352 0.01049 -0.00520 0.08686 0.00719 0.24895 0.04828 -0.06021 -0.03248 0.07342 0.00032 0.08769 -0.08206 -0.00505 -0.07319 0.11510 0.03944 0.03188 -0.04049 -0.07399 -0.04529 0.25378 0.02181 -0.01669 -0.00887 0.06971 -0.05855 -0.15772 0.08789 -0.01926 0.11547 -0.06153 -0.19910 -0.18142 0.06647 0.10824 -0.29072 0.23246 -0.02797 0.08880 0.17502 -0.07207 -0.00962 0.04165 0.11957 0.10361 0.07724 0.20554 -0.03587 0.08854 -0.02188 0.15285 -0.00944 0.19409 -0.03765 -0.03024 0.08958 0.05356 -0.15432 -0.11166 0.14829 -0.09707 0.14922 -0.00651 0.16419 -0.14574 -0.08600 -0.05815 0.12852 -0.18538 0.00456 0.03340 -0.15464 -0.04993 -0.09441 0.11365 0.09356 0.00606 0.02911 -0.09945 0.05734 -0.09092 -0.08557 0.06739 -0.07276 -0.08142 0.04451 -0.03808 -0.04821 0.13258 0.03343 -0.09691 -0.06637 -0.09825 -0.00045 0.20564 -0.08056 0.09538 0.02516 -0.03428 0.11480 -0.00307 -0.10805 0.02867 -0.00689 0.00122 -0.01236 0.07951 -0.04905 -0.09192 0.09194 -0.06062 0.01735 -0.06233 -0.00131 0.07869 -0.17938 -0.00783 0.04537 0.12112 -0.15922 -0.07456 -0.05434 0.09527 0.21962 0.12371 0.06374 0.05238 0.03251 0.05335 -0.08535 0.04729 0.01048 0.06194 -0.02213 0.03883 -0.07804 0.11774 -0.02248 0.00106 0.17623 0.04244 -0.04651 -0.00345 0.07269 -0.09932 0.05891 -0.01266 -0.19259 -0.10470 -0.02990 -0.09751 0.09690 0.21039 0.02588 -0.04993 -0.06082 -0.23052 -0.08594 -0.12711 -0.00633 0.08839 0.07932 0.07302 0.11064 0.12219 -0.09189 0.06906 0.01917 0.10398 -0.07286 -0.07825 -0.14138 -0.02130 0.05632 -0.23351 -0.04067 -0.20805 -0.15273 -0.08060 -0.18379 0.05730 -0.00496 0.18658 -0.04248 0.26455 -0.00739 0.01473 0.01545 0.08462 0.16624 0.12421 -0.03500 -0.07113 0.00375 0.16591 0.07606 -0.06192 0.15329 0.29451 0.08868 0.04299 -0.08543 -0.13552 -0.05235 0.08626 0.00958 0.04856 0.03691 0.15878 -0.06537 -0.18720 0.15411 -0.05477 0.10617 -0.03954 0.06933 -0.07087 0.03335 -0.00666 0.13552 0.05663 -0.11273 -0.12484 -0.07685 0.00697 -0.00533 -0.03762 -0.09121 0.02354 0.05440 0.02248 -0.20568 -0.04049 -0.13329 -0.05881 -0.11652 0.07140 0.07707 -0.01413 0.05522 0.09040 -0.03298 -0.06679 -0.04826 -0.16621 -0.07643 -0.05011 0.14144 -0.12452 -0.02715 0.04136 0.18023 0.06754 0.02927 0.05481 0.08352 0.02470 0.03581 0.15265 0.10332 -0.15990 0.14317 -0.01316 0.08203 0.05383 0.02142 -0.05526 -0.15093 -0.08047 0.00451 -0.14158 0.14512 0.09102 0.01557 0.14491 -0.02230 0.03036 0.15502 -0.16904 0.04669 -0.01838 -0.00074 -0.04925 0.04435 -0.16421 0.09094 0.01818 0.10037 -0.26452 0.01847 -0.01181 -0.03323 -0.10705 -0.03950 0.09533 0.03237 -0.05435 -0.08585 0.12137 -0.06904 0.01012 -0.09904 -0.17986 0.05730 -0.12270 0.07477 0.01892 -0.05121 0.05456 -0.08883 0.14284 0.03124 -0.17839 -0.06991 0.06721 0.12545 0.07828 0.10508 0.03602 0.04619 -0.00776 0.09891 -0.05351 -0.13570 -0.08409 0.06719 -0.10285 -0.06056 -0.02437 -0.16035 0.04099 0.07181 -0.04743 0.08391 0.00586 -0.07823 0.04555 -0.02819 0.00423 0.15197 -0.07757 -0.07576 0.11450 -0.08705 0.00651 -0.08356 0.09013 -0.03364 0.03485 -0.07837 -0.09464 0.03120 0.17248 -0.05557 0.12842 -0.00234 0.00947 -0.02084 0.00319 -0.12499 -0.09232 0.13751 0.00794 0.08526 -0.12150 0.12541 -0.08680 0.08883 0.06188 0.09661 -0.19602 -0.10479 -0.05424 -0.02244 -0.15779 -0.07088 -0.03347 -0.02727 -0.09362 0.08140 -0.00338 -0.12295 -0.11638 -0.20930 -0.12355 0.05787 0.15755 -0.15517 -0.04157 0.03335 0.04981 -0.09316 0.22441
. 0.05035 0.01604 0.08896 -0.09427 0.00768 -0.16789 -0.01812 -0.06433 -0.04134 0.08393 -0.01132 0.03044 -0.12051 0.00234 -0.08267 -0.03389 -0.01080 -0.03188 -0.03326 -0.17187 -0.09112 0.03374 0.29672 -0.11994 0.06876 0.04659 0.17459 -0.09271 0.05278 -0.08796 -0.02870 -0.05552 0.20494 0.08358 0.05167 -0.04660 -0.05852 0.02265 -0.03954 0.09719 -0.18171 -0.03493 0.19805 0.11757 0.10005 -0.05352 -0.04270 -0.04894 0.03631 0.03425 0.05870 -0.18814 -0.03271 -0.05239 0.12076 0.11878 -0.09674 -0.12437 0.10137 -0.02545 0.02687 -0.03806 0.17029 -0.06999 -0.21666 0.09184 0.10499 -0.08910 0.06773 0.06013 0.07300 -0.26381 -0.01098 -0.10895 0.08305 0.06120 0.04085 0.03636 0.07254 -0.06939 0.02148 -0.03398 0.02592 0.15903 0.04428 0.06305 -0.00118 -0.02623 0.02015 0.14805 0.04329 0.03352 0.10109 0.01669 0.17709 -0.00636 -0.17943 -0.02278 -0.11379 0.28731 -0.05194 0.00113 -0.03264 0.12279 -0.20509 -0.14312 -0.13140 -0.02424 -0.06106 -0.04073 0.18037 -0.02423 -0.06332 -0.01844 0.17495 0.26572 0.12259 0.11185 -0.04348 0.03161 -0.00560 0.12700 0.03451 0.23563 0.05792 -0.10467 -0.02533 0.13327 -0.02127 0.08546 -0.11871 0.00441 -0.05378 0.10309 0.10606 0.03166 -0.02051 -0.06478 -0.04207 0.30869 -0.02191 0.01239 0.02493 0.04996 -0.06806 -0.17396 0.08544 -0.01098 0.14505 -0.04136 -0.19692 -0.18999 0.10950 0.10487 -0.31985 0.18293 0.00121 0.06588 0.08338 -0.09193 -0.03345 -0.00384 0.09940 0.07894 0.08482 0.20287 -0.01823 0.08057 -0.10150 0.12117 -0.06574 0.18504 -0.07980 -0.02927 0.05623 0.04831 -0.15462 -0.06183 0.10727 -0.08890 0.18077 0.02016 0.20156 -0.16802 -0.06819 -0.05612 0.10135 -0.18514 0.02082 0.09513 -0.14432 -0.03171 -0.07512 0.08446 0.14002 -0.01042 0.04958 -0.12529 0.06336 -0.08546 -0.06452 -0.02994 -0.06908 -0.11245 0.08656 -0.02667 -0.06291 0.09994 0.05614 -0.07415 -0.08637 -0.07461 0.02099 0.14011 -0.06225 0.14242 0.06845 -0.06211 0.07767 -0.04648 -0.14123 -0.02376 -0.00117 -0.00688 -0.04502 0.06535 -0.02447 -0.07233 0.08319 -0.10147 0.05193 -0.05665 0.00008 0.04912 -0.20659 0.04864 0.07182 0.09912 -0.16966 -0.07802 -0.11437 0.02627 0.20595 0.07532 0.07933 0.08318 0.01472 0.04046 -0.07490 0.05911 -0.04631 0.09010 -0.03124 0.04937 -0.05433 0.16571 -0.07206 0.03549 0.21173 0.04952 -0.04397 -0.01666 0.09947 -0.08011 0.10453 0.01845 -0.26910 -0.08141 -0.00489 -0.18466 0.08795 0.19531 0.00008 -0.06638 -0.03830 -0.17530 -0.10737 -0.06380 0.00671 0.05978 0.03601 0.08588 0.06290 0.12401 -0.10025 0.07253 0.10549 0.12426 -0.09601 -0.09530 -0.07203 0.00774 0.09433 -0.22376 -0.02654 -0.16018 -0.14906 -0.10012 -0.19600 0.08231 -0.03792 0.21836 -0.04920 0.22554 0.01732 0.02769 0.00221 0.08047 0.18494 0.08423 -0.02928 -0.07562 0.07263 0.09988 0.11003 -0.04893 0.13065 0.26329 0.05698 -0.02812 -0.06163 -0.10344 -0.02561 0.06899 -0.05019 0.04374 0.05505 0.11311 -0.07731 -0.18487 0.16132 -0.03778 0.08924 -0.00295 0.03195 -0.07801 0.01281 -0.07483 0.09023 0.01860 -0.11125 -0.06293 -0.07626 -0.01936 0.00077 -0.03833 -0.12190 0.02934 0.07497 -0.00099 -0.24227 -0.08216 -0.11120 -0.11906 -0.07630 0.03239 0.01383 -0.04033 0.07152 0.07091 -0.01187 -0.01610 -0.01618 -0.20018 -0.08579 -0.00893 0.14019 -0.10269 -0.03268 0.05296 0.13610 0.10046 0.01024 0.05011 0.08041 0.05170 0.06295 0.15199 0.11260 -0.17105 0.16499 0.02551 0.04927 0.04456 0.04238 -0.09602 -0.11069 -0.03328 0.01341 -0.18490 0.12997 0.07525 0.07505 0.14836 -0.01759 0.06379 0.19008 -0.17629 0.06011 0.04205 -0.01863 0.01720 0.06303 -0.14347 0.11059 0.02588 0.10577 -0.24425 0.01450 -0.00663 -0.02698 -0.10133 -0.05960 0.08165 0.04202 -0.00705 -0.13245 0.13621 -0.05098 -0.00581 -0.06836 -0.22170 0.03142 -0.09089 0.06651 0.02599 -0.01937 0.05749 -0.06342 0.12707 0.03742 -0.12838 -0.05368 0.04594 0.11553 0.09324 0.07300 0.11588 0.01884 -0.01665 0.07419 -0.03722 -0.12848 -0.10624 0.07831 -0.10884 -0.02023 0.06697 -0.14900 0.05032 0.03799 -0.02434 0.11839 0.04839 -0.10766 0.05838 -0.02237 -0.05024 0.17536 -0.02760 -0.07052 0.08125 -0.08824 -0.04907 -0.07353 0.01629 0.03845 0.07049 -0.08274 -0.11990 0.09357 0.13908 -0.04159 0.15576 -0.00675 -0.03886 0.01545 0.08637 -0.10893 -0.05957 0.15937 -0.03980 0.07654 -0.10494 0.13948 -0.09476 0.09113 0.00056 0.04442 -0.20322 -0.08820 -0.01294 0.00790 -0.17129 -0.05663 -0.01979 -0.04172 -0.06518 0.10086 0.04231 -0.08789 -0.10832 -0.21533 -0.10601 0.01986 0.14125 -0.09499 0.02366 0.08436 0.11631 -0.10058 0.20453
of -0.08474 -0.08585 0.19080 -0.02087 0.10824 -0.21512 0.07015 0.20005 0.00321 -0.03413 -0.18910 0.06846 0.01628 0.04306 0.00765 0.08217 -0.12121 0.03781 -0.05373 -0.03896 0.00103 -0.06486 0.12027 0.00735 0.08593 0.13123 0.14156 -0.00177 0.05483 -0.15667 0.11443 0.14361 0.13431 -0.01662 -0.08174 -0.06858 -0.14521 0.09994 0.07744 0.07998 -0.24109 0.06391 0.07207 0.08835 0.14277 -0.04187 -0.11137 0.04701 0.04894 0.08983 0.04962 0.00099 0.08547 -0.11316 0.05365 -0.15850 -0.01311 -0.15166 -0.03010 0.03142 0.02376 -0.11238 0.16958 0.05722 -0.15916 0.05362 0.00791 -0.06539 0.11743 0.05432 0.06189 -0.01784 0.00779 0.06122 0.02351 0.07887 0.00001 0.04082 -0.04931 -0.05502 0.10179 0.11583 0.06257 0.00819 0.10895 -0.02949 0.05116 -0.10386 -0.02415 0.10136 -0.03277 -0.09337 -0.09109 -0.06949 0.06091 -0.12109 -0.04378 0.09523 -0.19536 0.13359 -0.13546 -0.11075 -0.05045 0.18011 -0.02165 -0.09717 -0.04781 0.02658 -0.20516 0.06714 0.10670 -0.19705 -0.07348 0.11656 0.09034 -0.02673 0.12748 0.39552 0.00322 -0.08717 -0.03497 -0.10670 -0.11154 0.20491 0.06207 0.03327 -0.12073 0.33690 -0.01062 0.13064 -0.18860 0.13571 -0.17449 0.08948 -0.00015 -0.26279 0.09145 0.05422 -0.01378 0.16001 -0.10599 0.11926 0.00905 -0.00391 -0.10951 -0.07403 0.24691 -0.04316 0.05058 0.07729 -0.07948 0.00410 -0.06215 0.20132 -0.27956 0.17236 -0.03871 0.00199 -0.14902 -0.00921 -0.27375 -0.06410 0.07605 -0.04808 -0.03273 0.03260 -0.07640 0.11242 -0.11822 0.08572 0.00061 0.09605 -0.08238 -0.10772 0.08657 -0.03990 -0.19064 -0.08321 0.02949 0.05447 0.12088 0.10918 0.09569 0.01885 0.04972 0.23554 0.13425 -0.14374 0.12100 0.02476 0.00587 0.10817 -0.04005 0.09337 0.06003 0.01874 0.07939 -0.01184 0.02034 -0.05432 0.02852 0.16375 0.01934 -0.02780 -0.05123 -0.06008 -0.07410 0.09820 -0.01128 -0.09115 -0.10698 0.10734 0.04305 0.08775 0.07483 -0.00376 0.05373 -0.11986 -0.08643 -0.02727 0.00985 0.07290 -0.05192 -0.00242 -0.08322 -0.00769 0.06830 -0.03626 -0.27010 0.01562 -0.06790 -0.02458 0.05145 0.08776 -0.01703 0.02897 0.07101 0.01595 -0.05791 -0.01714 0.01888 0.01053 0.09490 0.00358 0.02689 0.09586 -0.02297 0.06714 -0.22174 -0.13040 -0.18442 0.01121 -0.03636 -0.04422 -0.10939 0.23291 -0.10623 0.03771 0.13511 0.14617 -0.07717 0.12037 0.11661 0.06345 0.04534 0.08726 -0.24693 -0.11251 0.16975 -0.11653 0.06248 0.08247 0.00564 -0.24012 0.10801 -0.19752 0.07540 -0.19563 -0.03479 0.00294 -0.06517 -0.11820 -0.05568 0.15680 -0.07946 0.12684 0.03360 -0.03220 0.02344 -0.11728 0.06775 -0.07462 -0.03879 -0.06845 -0.00778 -0.06672 -0.11461 0.01959 -0.22075 -0.09364 -0.10919 0.01977 -0.13246 0.12124 0.01583 0.06558 0.03298 -0.07653 0.09907 0.12360 0.02321 -0.02089 0.21396 0.11913 0.12574 0.03195 0.13363 0.07800 0.07223 0.05746 0.00521 -0.00168 0.04444 -0.08496 0.05794 0.05517 -0.07963 0.02466 -0.04183 -0.06392 0.02513 -0.08206 0.18002 0.15610 0.00275 -0.09477 0.05597 -0.07719 0.09139 0.01494 -0.24086 -0.08127 -0.10439 -0.03559 -0.07791 -0.02479 -0.18655 0.00227 0.10376 -0.04408 -0.05560 -0.16175 -0.27728 -0.05700 0.03353 0.07837 0.01609 -0.12132 0.03263 -0.04532 -0.04450 -0.03727 0.08142 0.03474 -0.10664 -0.10625 0.05814 -0.22054 0.12096 0.06309 0.01141 -0.05408 -0.04584 0.13481 -0.04439 0.05954 0.19472 0.23542 -0.06930 -0.14494 0.08761 0.00286 0.14378 0.05187 0.02189 -0.06799 -0.09803 -0.00266 -0.12543 -0.14899 0.07425 0.12221 -0.03083 0.14227 0.11014 -0.05874 0.15390 -0.14295 -0.12090 -0.07270 0.01286 0.27628 0.07821 -0.11455 -0.04544 0.04108 -0.01967 -0.22430 0.16078 0.08403 -0.08683 -0.17470 0.02300 -0.02470 0.04242 -0.08434 -0.02913 -0.12198 -0.11188 -0.09709 0.11412 -0.29435 0.09665 0.07658 -0.06769 -0.08067 -0.05392 -0.07981 -0.10171 0.12818 -0.06731 -0.18507 0.04016 0.04887 0.08500 0.07765 0.11965 0.17509 0.07344 0.21365 0.05205 0.01116 -0.09614 0.22792 0.07420 -0.09494 -0.22033 -0.05230 -0.13224 0.08844 0.09603 0.00122 0.05894 0.14325 -0.01836 0.16480 0.07391 0.06540 0.03792 -0.10144 0.02227 -0.01513 -0.05625 -0.04591 -0.01067 -0.13080 0.09821 0.05532 0.09534 -0.07466 0.00119 -0.11386 0.05300 0.01286 0.06664 -0.04762 0.03392 0.07610 -0.03054 0.03100 0.04742 -0.19515 -0.07683 -0.05700 -0.05855 -0.12664 -0.06859 -0.12793 0.05979 -0.14432 -0.05242 -0.03628 0.10383 -0.05561 0.10065 -0.07797 0.13038 0.05175 -0.00170 0.00843 -0.04105 0.00791 -0.04116 0.03083 0.03388 0.03083 -0.05079 -0.11440 -0.04843 -0.04154 0.06604 0.10522
in -0.00306 -0.00487 0.11225 -0.19902 0.02066 -0.09259 0.02950 0.11896 -0.04382 -0.08887 -0.08009 -0.08043 -0.00244 0.15293 -0.04826 -0.02575 -0.03564 -0.09178 -0.02053 -0.16078 -0.12189 0.02410 0.22262 0.09816 0.05018 0.04839 -0.00115 -0.04609 0.05887 -0.05695 0.05813 -0.13523 0.05138 -0.06803 0.07669 -0.13360 -0.04156 0.01455 0.05862 0.08342 -0.28620 0.08893 0.19054 0.04680 0.00099 -0.11393 -0.03127 0.03898 0.05041 0.07986 0.08935 -0.01612 0.02914 -0.06793 0.18222 0.00763 -0.17899 -0.05240 -0.03321 -0.06743 -0.10079 -0.05475 0.13882 -0.13610 -0.00675 -0.00195 -0.09855 -0.03477 0.18295 0.09087 0.06382 -0.09998 0.05943 -0.02245 -0.11006 0.08460 0.09011 0.08438 -0.06605 -0.12488 0.04830 0.10313 0.01760 -0.02031 -0.10033 0.16026 -0.05048 -0.03589 0.06548 0.08787 0.08742 0.01826 0.00673 0.23365 0.20440 0.05861 -0.06767 0.28276 0.01682 0.28288 -0.11887 -0.01875 -0.12394 -0.00374 -0.14777 -0.14575 -0.06792 -0.01182 -0.08080 0.03053 -0.09252 -0.22979 0.01769 -0.04140 0.09164 -0.11451 0.09066 0.19992 -0.09702 -0.01160 0.20026 -0.06641 -0.21533 0.11897 0.19159 -0.04731 0.00053 0.19117 -0.03119 0.18650 0.00762 0.12273 -0.10077 0.12736 -0.03109 -0.08990 -0.01650 -0.03212 -0.07004 0.21246 -0.01039 0.09486 -0.02920 0.18967 -0.05688 -0.11776 0.16501 0.02585 0.01172 -0.05441 -0.05728 -0.07499 -0.01707 0.12718 -0.26293 0.09468 -0.18573 0.10186 -0.01418 0.00208 0.02635 0.08919 0.16382 -0.13636 -0.07273 0.03900 0.08687 0.10879 0.07083 -0.06437 -0.00927 0.16221 -0.13770 -0.07289 0.16237 -0.03987 -0.13610 -0.02073 0.05602 0.02865 0.01636 0.01535 0.16468 -0.13491 -0.03995 0.05865 0.10592 -0.12193 0.09584 0.23719 0.07489 0.11600 -0.07458 0.07278 0.09648 -0.09568 -0.01777 -0.09229 -0.00597 -0.10404 -0.04851 -0.03286 0.09716 0.05599 -0.01420 -0.19668 0.09457 0.18117 0.13511 0.05935 -0.11021 0.04871 0.04681 0.09405 -0.07352 0.12268 -0.12465 0.00869 -0.03391 -0.24283 0.02280 0.04333 0.07345 -0.07827 -0.04320 -0.06813 0.04821 -0.15185 -0.22295 -0.11545 -0.03854 -0.00344 -0.05348 -0.05012 -0.02553 -0.00531 0.09374 0.09293 -0.06130 -0.02179 -0.00768 0.25120 -0.18660 0.05154 0.01015 0.07260 0.04324 0.01349 0.14346 0.01534 -0.02041 -0.05791 -0.16611 -0.08886 -0.27516 0.12951 -0.07863 0.04959 0.23776 0.07371 -0.16918 0.12821 0.10055 -0.09341 0.11418 -0.06067 -0.06853 -0.13415 0.12872 -0.14235 0.09841 0.37135 -0.02939 -0.26067 0.07456 -0.12824 -0.03899 -0.10259 0.02564 -0.01192 -0.04003 -0.04338 -0.02728 -0.02997 -0.08923 0.20918 0.13248 0.01299 0.04791 -0.12094 0.11750 -0.16190 -0.01224 -0.24210 -0.00363 -0.08535 -0.15103 -0.05374 -0.10735 -0.10472 -0.01636 0.07618 -0.08745 0.03033 0.12372 -0.03531 0.01137 -0.06088 0.12413 -0.00734 0.16660 0.04505 0.16479 0.19375 0.03046 0.07282 -0.00239 0.09977 0.13631 -0.15192 0.01638 0.03204 -0.10530 -0.12705 0.01715 -0.05619 -0.07562 -0.02162 -0.12354 -0.11434 0.08299 -0.03830 0.03138 -0.07028 -0.09235 -0.06697 0.07223 -0.08198 0.16868 -0.08022 0.04271 0.13461 0.06157 0.02262 0.08000 0.16365 0.04937 -0.02673 0.16289 0.04781 -0.03478 -0.06393 -0.11536 -0.11576 -0.01589 -0.06015 0.13834 -0.06255 0.11411 -0.08283 -0.08942 -0.26165 0.07271 -0.04649 -0.00190 -0.08301 0.02257 -0.13859 0.01565 0.02091 0.11835 -0.05888 0.10403 0.15054 -0.02133 0.10889 0.09808 0.14966 0.09610 -0.20691 0.29303 0.07934 -0.05717 -0.01427 -0.06146 0.02689 -0.06529 -0.09478 -0.13236 -0.13058 -0.00617 0.13230 0.07578 0.17385 0.09072 0.09594 0.08825 -0.11117 0.07471 -0.04327 -0.13299 -0.03059 0.12694 -0.11948 0.06805 0.02457 0.13123 -0.01857 0.15424 0.00017 -0.07953 -0.04020 0.06465 0.01893 0.12487 -0.05310 0.02624 -0.04045 -0.22689 -0.05030 0.12335 -0.11365 0.06414 -0.00564 0.19461 -0.14124 -0.15790 -0.24331 -0.05644 -0.00370 -0.23151 -0.12764 0.06793 0.05318 0.09156 0.13002 -0.08816 0.05150 0.03073 0.04381 -0.05032 0.07181 0.11172 -0.01746 -0.14125 0.04046 0.03662 0.08515 -0.05729 0.10202 0.18776 -0.00200 0.16086 -0.05740 0.02413 0.11781 -0.17780 -0.03845 0.09629 -0.00112 0.15399 0.03564 -0.10818 0.11312 -0.08831 0.03123 0.12803 0.00263 -0.09236 -0.09066 0.05328 0.01941 0.08511 -0.10638 0.13224 0.11643 -0.01435 0.03577 0.07548 -0.11453 0.01473 -0.08935 0.12855 -0.02451 0.05206 -0.03895 0.08772 0.01313 -0.02340 -0.09709 -0.23646 0.05222 -0.00775 -0.07806 -0.07495 0.13615 0.01617 -0.08269 -0.00917 0.03518 0.02245 -0.09129 -0.11596 -0.05170 0.06165 -0.08875 -0.01147 0.00641 0.07584 -0.03599 0.02464 -0.01263
and -0.01620 0.05682 0.10786 -0.11200 0.04588 -0.09170 0.11712 0.00101 0.02717 0.05581 -0.18366 0.14078 -0.11411 0.00916 -0.15804 -0.02319 0.03025 0.06011 -0.02012 0.00310 -0.08007 -0.03251 0.12440 -0.02377 0.14679 -0.04248 0.10912 0.02063 -0.02025 -0.09491 -0.05625 0.11133 0.06312 0.11747 -0.01842 -0.14245 -0.02923 0.09949 -0.04082 0.09548 -0.23057 0.10044 0.15161 0.07402 0.13215 -0.00857 -0.01580 -0.00614 -0.09658 0.01462 0.12607 -0.10813 -0.13364 -0.12988 -0.03382 0.01560 -0.27292 -0.02509 -0.07825 0.12505 -0.01261 -0.11508 0.13532 0.02623 -0.15095 0.02140 0.08474 -0.10792 -0.00362 -0.04039 0.05596 -0.05672 0.05442 -0.06404 -0.05389 0.11286 0.05463 0.04180 0.05754 -0.04318 0.06148 0.00383 0.03869 0.10522 0.09773 0.13845 -0.03146 -0.10750 0.03952 0.01739 0.00745 -0.03352 0.06598 0.02253 0.14912 -0.00907 -0.02838 0.12305 -0.10061 0.12859 -0.06839 -0.12002 0.00012 0.07672 -0.09729 -0.07920 -0.15145 0.03679 -0.00323 0.03213 0.05587 -0.06992 -0.04926 0.10224 0.11422 0.03283 0.11645 0.10726 -0.00755 0.05663 0.03148 0.01824 -0.02215 0.01787 0.08597 -0.10247 0.01493 0.11101 -0.00743 0.08259 -0.06432 0.13784 -0.08245 0.06275 0.03691 -0.08434 -0.01149 -0.03578 -0.11900 0.11217 -0.16065 -0.06927 0.11519 -0.05384 -0.05553 0.00255 0.01958 0.01463 0.12799 -0.04080 -0.07311 -0.06945 0.17247 0.08636 -0.25022 0.04364 -0.00054 0.01726 -0.01890 0.00503 -0.09308 -0.02384 0.08918 0.01046 0.05814 0.16386 0.01838 0.03782 -0.04672 0.12538 0.02749 0.10987 -0.00016 -0.02649 0.00796 -0.06615 -0.13770 -0.11076 0.10308 0.04504 0.06353 -0.10356 0.18271 -0.05363 0.01492 0.08043 0.03041 -0.10451 0.03217 0.17119 -0.03980 0.03721 -0.06695 0.11716 0.15712 0.06746 0.07031 0.00031 -0.00181 -0.02174 -0.09385 0.01823 0.08661 -0.00275 0.05170 -0.05779 -0.06790 0.01401 0.06007 -0.08822 -0.10056 -0.09117 0.04999 0.08520 -0.06765 0.04983 -0.04248 -0.02672 0.10146 -0.09716 -0.02381 0.03014 0.04657 -0.01046 -0.05348 0.05766 -0.03831 0.00602 0.00995 -0.10115 0.05845 0.00868 0.06172 0.04722 -0.06579 -0.00203 0.07880 0.07746 0.02300 -0.09398 -0.10554 -0.04983 0.01149 0.17451 -0.08584 0.01139 0.03416 -0.06861 -0.10211 -0.02991 -0.09384 0.02758 -0.12698 -0.03106 -0.07163 0.19123 -0.03965 0.02588 0.23208 0.17373 0.00869 -0.05793 0.06921 -0.10943 0.16322 0.13524 -0.20107 -0.00963 0.05189 -0.14471 0.17353 0.14409 -0.07224 -0.07531 0.11972 -0.06988 0.03451 -0.13572 0.01215 0.01111 -0.00509 0.00602 -0.08703 0.02564 -0.04133 0.05052 0.13067 0.06605 -0.06864 -0.13635 -0.05172 -0.03662 -0.03282 -0.11241 -0.01921 -0.00919 -0.02641 0.02201 -0.03607 0.05096 -0.06780 -0.03503 0.03107 0.07953 0.04838 -0.00825 0.09873 0.07828 0.10665 0.00766 0.06674 0.02710 0.17263 0.05725 -0.00510 0.02063 0.13351 0.12270 0.06584 -0.06223 0.03627 -0.02715 -0.01449 0.05308 -0.02469 0.04437 0.08531 0.02131 0.00088 -0.09843 -0.02203 0.03708 -0.04329 0.07773 0.02997 -0.08299 0.12722 -0.07956 0.05250 0.11211 -0.13380 0.08271 -0.01208 -0.00234 0.02867 -0.07516 -0.12328 0.04055 0.03473 0.03762 -0.16195 -0.10229 -0.14821 -0.13040 -0.00681 -0.05915 0.11278 -0.02097 0.11548 0.00251 -0.11048 -0.00010 0.03185 -0.12387 -0.10907 -0.11883 0.13608 -0.04553 0.01040 -0.04313 0.07487 0.06859 0.03102 0.04014 0.05063 0.02215 0.15675 0.21034 0.02044 -0.13481 0.14445 0.01706 -0.06390 -0.02293 0.06616 -0.01030 -0.07266 0.00329 -0.06365 -0.20435 0.06391 0.02314 -0.08764 0.25367 0.05787 0.11811 0.10039 -0.06253 -0.00758 -0.03905 0.01828 0.05380 0.08521 -0.17224 -0.09100 -0.04016 0.16113 -0.14313 0.02475 -0.04200 -0.03813 -0.07564 -0.01720 0.02200 0.12053 -0.01492 -0.11576 0.04979 0.07990 0.04242 0.11130 -0.19151 0.02817 0.06130 -0.01808 0.15063 0.02998 0.03391 -0.05572 0.06666 -0.05278 -0.12612 -0.08157 -0.03014 0.17468 0.04876 0.00382 0.13499 -0.03004 0.05941 0.06945 0.02875 0.05878 -0.01024 0.06969 0.03514 -0.01097 0.04166 -0.12419 0.06244 -0.04562 -0.18575 0.04776 0.03084 -0.03929 -0.01981 0.03633 -0.03937 0.06708 0.03338 -0.12868 0.07252 -0.13351 -0.15713 -0.05621 0.02701 -0.01708 0.05042 -0.01964 -0.11024 0.13070 0.00348 -0.07185 0.11897 0.10145 -0.01072 0.03378 0.07778 -0.09156 -0.01459 0.05325 -0.03914 0.06778 -0.11136 0.07282 -0.16110 0.10888 0.02705 -0.07397 -0.08695 -0.04302 -0.07718 0.01394 -0.02195 -0.13097 -0.07248 0.09952 -0.04399 -0.01153 -0.05134 0.07787 -0.17097 -0.15046 -0.06714 0.09520 0.01467 -0.00024 0.03141 0.02017 0.09846 0.10392 0.02384
a 0.10528 0.02562 0.25861 -0.20080 0.11908 -0.17994 0.19789 0.00500 -0.04703 0.06749 -0.05527 -0.02197 0.07372 -0.12368 -0.10499 -0.01777 0.01842 -0.08593 0.06081 -0.11176 0.14926 -0.07001 0.04881 -0.04586 -0.02087 -0.10987 -0.02169 -0.07489 0.06630 -0.05947 -0.04080 0.00830 0.09380 0.01768 0.00891 -0.06756 -0.15317 -0.01683 -0.08044 -0.02913 -0.36556 -0.11770 0.04126 0.22532 -0.09434 -0.13647 -0.01121 -0.02534 -0.03683 0.01216 -0.00365 -0.02723 0.01334 -0.04209 0.05064 -0.08408 -0.00242 0.06597 0.00951 0.07730 0.01720 -0.08319 -0.03312 -0.07551 0.02584 0.02816 0.19396 -0.08674 -0.03261 0.12516 -0.02123 -0.10574 0.07365 -0.08056 -0.19874 0.01669 0.03474 -0.17878 -0.28948 -0.15772 0.06249 0.02670 -0.01861 -0.02183 0.01714 0.25289 -0.12393 -0.10543 0.12741 -0.03747 -0.09151 0.11583 0.04374 -0.02274 -0.16105 -0.05411 -0.09196 -0.09764 -0.06336 0.07592 -0.07521 -0.11188 -0.02727 0.11260 -0.01742 -0.06865 -0.10447 -0.02940 -0.06672 -0.02033 0.24735 -0.04819 -0.16258 0.05836 0.11232 -0.00348 0.14087 0.16958 0.05762 -0.07597 0.08841 0.00610 -0.27299 0.19427 0.14948 -0.06304 -0.09555 0.12633 -0.00993 0.12516 0.06178 -0.00224 -0.00951 0.01053 0.13114 -0.12102 0.10761 -0.12500 0.08158 0.25254 -0.09475 0.02366 0.00489 0.14023 -0.31147 -0.16354 0.17421 -0.10931 -0.00974 0.03149 -0.15076 -0.15476 -0.15690 -0.00047 -0.31591 0.27541 -0.10723 0.05063 0.01159 -0.05902 -0.02828 0.11652 0.14686 -0.11425 -0.12580 0.16260 0.01509 0.04952 0.22299 0.12219 0.01874 0.07381 -0.20493 -0.03171 0.06442 -0.16754 -0.23639 -0.04745 -0.05085 -0.19540 -0.18128 -0.00465 0.08518 -0.03167 -0.09244 -0.00145 0.16423 -0.24544 0.12261 0.14690 0.02555 0.19633 -0.13206 -0.09980 0.13296 -0.11761 -0.03840 -0.06180 0.12370 0.14889 -0.05986 -0.01181 0.08740 -0.11718 -0.00123 -0.36628 0.02414 0.16753 0.10086 0.11564 -0.06641 -0.04275 0.23783 -0.07648 -0.06353 0.05429 0.02049 0.02144 -0.19890 0.10859 -0.09149 0.09162 -0.06155 -0.05234 0.26197 -0.00114 0.05391 0.07242 -0.16914 0.14798 0.10865 -0.12700 -0.00671 0.04547 0.01419 -0.11190 0.06131 0.15664 -0.06392 -0.08609 0.01856 0.17725 -0.04418 -0.11822 0.00871 0.03808 0.03199 -0.03681 0.03366 0.17361 -0.03484 -0.00429 -0.11001 -0.15305 0.16682 0.04746 -0.08799 -0.09042 0.06463 0.03090 0.06047 -0.11838 -0.06755 -0.00399 0.16402 -0.05892 -0.10073 -0.06272 0.17650 -0.14857 -0.13619 0.00447 0.22373 -0.29377 0.09944 -0.14288 0.15481 -0.10373 0.12920 0.13261 -0.12302 0.21473 -0.15889 0.07068 -0.08289 0.10687 0.05578 0.05555 0.04706 -0.13023 0.05583 -0.23431 -0.01445 0.00158 -0.02688 -0.07537 -0.04706 -0.06303 -0.09756 0.02082 0.16749 0.06038 -0.10758 0.08635 0.06688 -0.15294 -0.00557 -0.30431 0.26004 0.02562 0.08060 -0.29442 0.13897 0.20987 0.03701 -0.01865 0.01099 -0.16665 0.16749 -0.06831 -0.05089 0.09942 0.05845 -0.14514 0.05228 0.05675 0.14660 0.17793 -0.18648 -0.03981 0.04793 -0.05793 0.01767 0.10714 -0.00041 -0.11640 0.11144 -0.13775 -0.06361 0.00913 -0.14748 0.13745 0.03815 -0.06874 -0.06979 -0.09612 -0.07346 0.04726 0.00537 -0.09781 -0.21445 -0.08238 -0.09255 0.02844 -0.08491 -0.06335 0.05882 0.14574 -0.00629 -0.13287 -0.02621 -0.16361 -0.19853 -0.14809 -0.09833 0.03935 0.04562 -0.00448 0.16161 0.05124 -0.13886 -0.02132 -0.13130 0.01677 0.05587 -0.18861 0.17291 0.25252 -0.09264 -0.07041 0.03584 -0.04942 0.03638 -0.21324 0.00291 -0.03782 -0.17061 -0.03259 -0.10204 -0.30244 0.14004 0.25889 -0.08010 0.13140 0.02531 0.03181 0.04103 -0.12278 0.05546 -0.00838 0.01185 0.03615 0.11585 -0.17158 -0.03781 -0.09153 0.10238 -0.06432 0.16055 -0.08013 0.11527 -0.04939 0.04507 -0.11873 0.23350 -0.19245 0.10138 -0.04459 -0.17336 -0.02821 0.24683 -0.14221 0.14221 -0.06410 -0.10450 0.11086 -0.02576 0.01501 0.01881 0.03588 -0.17467 -0.16196 0.06641 -0.01642 0.07186 0.01246 -0.10189 -0.29543 0.06868 0.09859 -0.03704 0.08881 -0.05437 -0.04203 -0.02221 0.08598 -0.04839 0.10334 -0.01763 0.09277 0.06565 -0.09152 0.03055 0.02118 -0.05053 0.00139 0.09237 -0.05173 0.19581 0.07238 0.08073 -0.00230 -0.06242 -0.18471 -0.04259 0.07984 0.31128 -0.01753 -0.02864 0.02063 -0.09510 0.04988 -0.09315 0.08004 0.03820 -0.02051 0.11361 -0.01344 0.11696 0.06585 0.00946 0.10091 0.11740 -0.11685 0.00936 -0.01578 -0.21452 -0.12150 0.01275 -0.02618 -0.05408 0.00826 0.02976 0.00569 -0.05701 -0.04099 0.05238 -0.01211 0.10444 0.05328 -0.05008 -0.03578 0.10237 -0.13009 0.14754 -0.18955 -0.14778 0.11561 0.01077 0.04276 -0.01524 0.01945
to -0.09923 0.06523 0.03117 -0.25157 0.23432 0.00933 0.19357 0.04023 0.07300 0.09401 -0.24466 0.04453 -0.06992 0.07619 0.06605 0.04792 0.04402 -0.07580 0.11982 0.14691 -0.18951 -0.13834 0.04991 -0.03942 0.14179 -0.17912 -0.01316 -0.08848 -0.01229 0.13664 -0.16820 -0.04806 0.17785 -0.19190 0.00442 -0.18714 0.11821 0.00359 0.07522 0.09808 -0.23040 -0.03681 0.16980 0.02094 0.10479 -0.03258 0.17645 -0.05234 -0.07140 0.08183 -0.00780 -0.00681 0.03616 -0.18180 -0.03733 -0.04444 -0.14227 0.24352 -0.17301 0.02327 0.01742 0.13688 0.16636 0.01571 0.11641 0.04201 0.23231 -0.19305 0.19465 -0.14978 -0.01028 -0.05648 -0.09614 0.04815 0.09838 -0.01207 0.02721 -0.04565 -0.19726 0.13163 -0.06677 0.04143 0.14331 -0.06120 -0.00258 0.12332 0.15065 -0.03299 0.12106 0.01823 -0.06761 0.09822 0.07143 0.04956 0.03094 0.18996 -0.01896 0.11169 0.03816 0.33614 0.05387 -0.11165 0.00382 -0.01546 -0.18726 -0.06011 -0.07273 -0.01320 -0.08331 0.15896 0.08231 -0.06058 0.01506 -0.03673 0.21290 0.11189 0.15509 0.15736 -0.08892 0.17265 0.13098 -0.05740 0.14048 0.12055 0.17485 -0.03296 0.03770 0.13346 -0.07524 0.01543 -0.11737 0.05264 0.06940 0.05029 0.08836 -0.08237 -0.08549 -0.13164 -0.13722 0.01958 -0.11240 0.14202 -0.01117 0.01577 -0.04887 -0.15236 0.10224 -0.07885 0.18754 0.05926 -0.21056 -0.09486 -0.02035 -0.05381 -0.14010 0.17666 0.01434 -0.06502 0.01887 -0.09189 0.09134 -0.05614 -0.03480 -0.16113 -0.05974 0.12835 -0.11662 -0.21037 -0.08605 0.03655 0.05904 0.10765 -0.21956 -0.03315 0.28115 -0.02366 -0.12942 -0.10675 0.13327 0.05700 0.03576 -0.09887 0.17282 -0.13983 -0.13351 0.03616 0.01716 -0.16324 0.05940 0.11063 -0.23133 0.02551 0.07220 -0.02196 0.17192 -0.00947 0.08496 -0.07150 0.11833 -0.03499 -0.05750 0.01627 0.00560 0.03269 -0.08986 0.05949 0.04142 -0.16094 0.05215 -0.10395 -0.00685 -0.10232 -0.02394 0.07404 -0.22324 0.08157 0.01900 -0.00846 -0.04084 -0.26233 -0.07703 0.24203 -0.00741 -0.22199 -0.08113 -0.08268 0.01079 0.05699 -0.10657 -0.04208 0.08580 -0.11646 -0.13814 0.12702 0.20180 -0.02831 0.05447 -0.11204 0.03858 -0.03064 -0.04745 -0.02275 -0.03267 -0.06509 -0.16264 0.14309 0.15962 -0.05874 -0.20580 -0.16723 0.04400 -0.04238 -0.20702 -0.09488 -0.13615 0.03322 0.08621 -0.13761 0.30531 0.19000 -0.18876 -0.05908 0.01999 0.01665 0.25126 0.16903 -0.07604 -0.06189 0.09868 -0.12656 0.15793 -0.01210 -0.13674 -0.25897 0.17335 -0.03476 -0.09202 0.14142 -0.05634 0.02206 0.06881 -0.03705 0.12014 0.11164 0.08609 0.15455 0.08461 0.11215 -0.05477 -0.10295 -0.14670 0.03914 0.11559 -0.20018 0.15706 -0.21688 0.13298 -0.08499 -0.06812 0.04532 -0.00755 -0.07808 -0.10765 -0.16513 0.08506 0.05116 0.11696 -0.03918 -0.02707 0.04358 0.05633 -0.22865 0.20427 0.21676 -0.07874 -0.01156 0.20690 0.11152 0.07273 0.10589 -0.06392 -0.05323 -0.06476 -0.10095 0.07913 -0.02082 0.12878 0.11187 -0.13563 -0.09745 0.15215 -0.03022 -0.07746 -0.00496 -0.03366 0.02164 0.05915 0.04315 -0.21386 0.18166 0.06913 -0.01238 -0.02503 0.05774 -0.02181 -0.20634 -0.18106 -0.01183 0.01291 -0.01089 -0.09148 0.05884 0.04894 -0.03255 -0.00712 -0.16481 0.10759 0.00191 0.06193 0.02484 0.08399 -0.03081 -0.05498 -0.06552 -0.04735 -0.12115 0.07050 -0.07707 0.15466 0.11486 0.15813 -0.10594 0.12702 0.09898 -0.08262 0.02065 0.10110 0.11117 -0.06112 -0.19566 0.09479 0.03528 0.00779 -0.02347 0.03958 -0.04013 -0.07573 0.00962 -0.13851 -0.13004 0.28006 -0.11492 -0.07206 0.06844 0.05126 -0.02059 0.14667 0.08625 0.08941 -0.05690 0.11349 0.32187 0.07178 -0.00889 -0.04698 -0.13350 -0.04494 0.13089 0.08125 -0.06634 0.10119 -0.01517 -0.07909 -0.10167 0.27799 -0.07620 -0.04845 -0.16520 -0.00467 -0.00650 0.16140 -0.25693 0.00159 0.04086 0.10662 -0.01427 0.10583 -0.00127 -0.07553 0.09320 -0.15827 -0.05564 0.09829 0.25420 0.12321 -0.01906 -0.04957 -0.03827 0.01710 -0.02300 0.00638 0.07297 0.05825 0.02481 0.05625 -0.09687 -0.13516 0.02967 0.01122 0.07503 0.03067 -0.04256 0.16630 0.04929 -0.08540 0.04356 -0.04588 0.00667 0.01777 -0.15282 -0.10420 0.18863 -0.16217 0.00904 0.03685 0.11660 0.07769 0.13560 -0.16576 -0.03579 -0.06922 -0.07396 0.03714 0.08976 -0.06735 -0.11790 -0.22695 -0.01571 -0.05660 -0.10621 0.11855 -0.05925 -0.01422 -0.02339 0.09220 -0.11596 0.25545 -0.03206 0.06595 -0.13501 0.12084 -0.03998 -0.05537 0.03742 0.11243 0.06710 0.03814 0.02019 0.15861 -0.17186 0.07930 -0.21097 0.00876 -0.15159 0.15139 0.05377 -0.18795 -0.07433 -0.07961 -0.04048 -0.01120 0.09893
